6734 50
</s> 0.008005 0.008839 -0.007661 -0.006556 0.002733 0.006042 0.001882 0.000423 -0.007207 0.004437 -0.008713 0.002499 -0.001503 -0.001914 -0.006631 -0.003764 0.005159 0.006051 0.005938 0.003195 0.003090 -0.007605 -0.008192 0.009939 0.007603 0.006180 -0.001208 0.008031 -0.000990 0.001469 -0.000298 -0.005966 0.002625 -0.002675 -0.007651 0.009508 0.008759 -0.002190 -0.000452 0.001018 -0.007275 -0.008014 0.009109 0.000126 -0.005165 -0.006084 -0.006153 0.003394 0.000403 0.002662 
de 0.018559 -0.154175 0.198773 0.172455 0.204194 -0.537547 0.358194 -0.200100 -0.160042 -0.038836 0.475036 -0.180447 -0.043856 0.193837 0.013512 0.094125 0.225889 -0.430162 0.391815 0.103420 -0.032384 0.240640 0.391556 -0.291618 0.059759 0.031179 -0.161115 0.393955 0.281761 -0.016557 -0.436635 0.247834 0.005564 0.276927 -0.363797 0.673989 0.765429 0.325600 0.014045 -0.272180 -0.133721 0.177084 -0.107918 0.213647 0.255463 0.058262 0.042365 -0.265651 -0.216379 0.301930 
la 0.438642 -0.538214 0.450826 -0.009839 0.399253 -0.119331 0.134551 -0.688676 -0.419227 -0.028369 0.340247 -0.088991 0.078516 0.179242 0.221442 0.360645 0.201392 -0.261645 0.381851 0.279985 -1.094310 0.152088 0.335740 -0.056251 0.345874 -0.093940 -0.439449 0.249824 0.042622 0.191945 -0.348992 0.304083 -0.015484 -0.032378 0.353109 0.273261 0.910148 -0.204921 -0.383450 -0.463238 -0.072819 -0.039148 0.040965 0.267119 0.621536 0.236434 0.292236 -0.267781 -0.608536 -0.067224 
que -0.187060 0.179205 -0.013164 0.303771 0.353410 0.287216 0.129809 -0.438653 -0.196929 -0.079764 -0.046587 -0.283501 -0.409744 -0.510410 0.017366 0.691362 0.293059 -0.162130 0.558598 0.247753 -0.299205 -0.085803 0.147744 -0.199981 0.231280 0.071505 -0.068196 0.133680 0.257786 -0.484964 0.064190 0.194918 -0.453625 0.243527 0.282284 0.573884 0.433884 0.251079 0.215707 -0.038121 -0.047760 0.157657 -0.426346 0.146898 0.101975 0.261364 -0.368837 0.454252 -0.128942 0.222756 
el -0.389074 0.074558 -0.044261 0.253870 0.264039 -0.159924 0.423310 -0.261733 -0.077454 0.678249 0.245867 -0.378295 -0.227854 -0.378676 -0.217319 0.432106 0.572371 -0.091180 0.247485 0.461214 0.135489 0.571682 0.272230 -0.037947 0.539925 0.353401 -0.157755 0.456544 -0.177377 0.147485 0.178512 -0.161436 0.435948 0.029510 0.189992 0.100470 0.130550 0.509340 0.381514 0.342666 -0.278816 0.343470 -0.387568 0.251175 0.449758 -0.021628 0.130441 0.223591 0.071452 0.029629 
en -0.147554 -0.156261 -0.007547 -0.036696 0.465321 -0.143975 0.153646 -0.248549 0.153503 -0.181692 0.462431 -0.192141 -0.224091 -0.041714 0.185244 0.220504 0.441294 -0.089936 0.215436 0.459208 -0.249163 0.585696 0.208952 0.015723 -0.127010 -0.211559 -0.411772 0.423036 0.001974 0.067765 -0.036273 0.179653 0.213204 0.221875 0.292244 0.629945 0.221401 -0.096672 0.291316 -0.116986 -0.091717 0.329430 -0.036557 0.315846 0.559088 -0.139280 -0.152086 0.056094 -0.302487 0.149743 
y -0.047932 0.077621 0.240876 0.068964 0.351066 -0.217932 0.053568 -0.019614 -0.014063 0.311325 0.431453 0.158723 -0.266090 -0.419683 -0.141942 0.283646 0.426953 -0.088049 0.150928 -0.231277 -0.011607 0.095539 0.500727 -0.027002 -0.256578 0.265326 -0.068355 0.226827 0.274301 -0.326758 0.015155 -0.189556 -0.112068 0.356494 -0.261989 0.465262 0.285699 0.128032 0.482520 -0.013805 -0.028713 0.406225 -0.146548 0.341537 0.324570 0.208202 0.014531 -0.197468 -0.135441 0.060104 
a -0.141087 -0.074867 0.187345 0.066068 -0.359817 0.046900 0.254809 0.360428 0.092027 -0.226549 0.308035 0.100369 0.024518 0.064015 0.213656 0.258834 0.454254 -0.214296 0.721146 0.174383 -0.212109 0.477652 -0.393543 -0.435219 0.153119 -0.208749 -0.019865 0.154044 0.244465 -0.363447 -0.012561 0.547745 0.030744 -0.180068 -0.104140 0.631313 0.453752 0.095467 0.209170 -0.007845 0.084845 0.088053 -0.766100 0.603543 0.505834 0.259927 -0.248264 0.190469 -0.253015 -0.369041 
del -0.625904 -0.377252 0.053730 0.398728 0.530218 -0.186471 0.197760 -0.042413 -0.167222 0.562932 0.864694 -0.066039 0.068076 -0.053819 -0.310227 0.238479 0.332382 -0.094940 0.376779 0.693264 0.131496 0.334182 0.528996 -0.383097 0.608858 -0.009933 -0.077821 0.078929 0.224263 0.034499 -0.138437 -0.128102 0.398476 0.581070 -0.196657 -0.319020 0.164868 0.735542 0.386975 0.175230 -0.463649 -0.082798 -0.265128 0.066650 0.713168 0.033030 0.310174 -0.086283 -0.102789 0.205307 
los -0.364041 0.008680 0.284409 0.228363 0.231146 -0.125037 0.235542 0.732774 0.140953 0.124441 0.137786 0.011293 -0.144113 -0.239097 -0.239767 -0.272250 0.489549 0.280254 1.057809 0.205248 -0.124366 -0.138352 0.851976 0.131218 -0.731303 0.271408 -0.726617 -0.266121 0.173617 -0.235133 -0.255572 0.054158 -0.482281 -0.157591 -0.117057 0.428250 0.696558 0.319759 0.406327 -0.308090 -0.183568 0.400035 -0.455615 0.276178 -0.004235 0.364349 -0.257234 -0.490839 -0.828942 -0.124210 
por 0.105777 0.336153 0.057455 0.179380 0.611369 0.302263 0.437868 0.028097 -0.223492 0.062601 0.229269 0.224079 -0.358268 -0.250294 0.204361 0.209998 0.553136 0.066298 0.453546 -0.125186 -0.302234 0.172077 0.337944 -0.565672 0.260317 0.265079 -0.563631 0.002241 -0.179125 -0.242503 -0.148000 -0.030148 0.130244 0.587667 0.015549 0.216276 0.506367 0.506234 0.330900 0.001224 0.413939 -0.089494 -0.156552 -0.002538 0.577368 -0.084759 -0.067879 -0.234730 0.093509 -0.497177 
se -0.033502 -0.263781 0.102028 0.187959 0.193071 0.124246 0.027210 -0.362146 0.034987 0.186207 0.185716 -0.226635 -0.315069 0.099035 -0.388351 0.310164 0.378622 -0.098352 0.184473 0.332924 -0.065773 0.499930 0.387024 -0.374737 0.099793 -0.067093 0.107334 0.361689 0.005479 0.102763 0.113475 0.166463 0.139843 0.102019 0.324020 0.394566 0.285894 0.017773 0.078168 -0.085295 0.054183 0.404356 -0.759537 0.193681 0.275248 0.060535 -0.660986 0.341081 -0.288078 -0.308278 
las 0.682062 -0.031258 0.402300 -0.180621 -0.187448 -0.313741 -0.298529 -0.184528 -0.010720 0.464266 -0.078916 0.733331 -0.415728 -0.082432 -0.084991 0.153913 0.432369 0.268190 -0.214434 0.426438 -0.326360 -0.023566 0.452443 0.252550 -0.043704 0.237017 -0.093314 -0.038461 0.210401 -0.408235 -0.110403 0.341920 0.014687 0.104261 -0.061570 0.887017 0.715797 0.254631 0.758046 -0.002643 -0.480971 0.888065 -1.060131 0.601180 -0.173808 0.047199 -0.511995 -0.658331 0.008948 -0.574934 
un -0.390916 0.129402 -0.164363 -0.102554 0.200717 0.077174 0.254326 -0.076520 -0.107572 0.332354 -0.313264 -0.363878 -0.493195 -0.301386 -0.305806 0.569241 0.876993 -0.180032 0.189233 0.454498 -0.572815 0.480597 -0.084528 -0.298390 0.497417 0.246506 -0.292815 0.508909 -0.163832 0.401725 0.101821 -0.023110 0.700975 0.070304 0.108944 0.205861 0.585684 0.604888 0.247703 0.362889 0.120568 0.194874 -0.727145 -0.028531 0.300404 0.029249 0.107923 0.206213 0.020742 0.025896 
con 0.026244 -0.054648 0.003106 -0.170391 0.523716 -0.241460 0.041856 -0.449810 0.087043 0.081622 0.572644 0.081086 -0.344319 0.022668 0.145515 0.167160 0.614872 -0.287091 0.084627 -0.135560 -0.000204 0.465813 0.315309 -0.370079 0.012674 0.025092 -0.305940 0.235980 0.296441 -0.240246 -0.140307 0.246265 0.160799 0.162739 -0.141978 0.199233 0.079964 0.354349 0.175713 -0.320926 -0.156193 0.173448 -0.292541 0.248710 0.479631 0.222927 -0.158675 0.118861 -0.487760 -0.188286 
para -0.177184 0.079096 -0.088467 -0.084898 0.280429 -0.377988 -0.011363 -0.222668 -0.177936 -0.332765 0.268719 0.146259 -0.086984 -0.239254 -0.294592 0.093529 0.489808 -0.449698 0.253550 0.142327 -0.296577 0.525705 0.057203 -0.181668 -0.234529 -0.081315 0.030912 -0.081721 0.296687 -0.133945 -0.323108 0.354090 0.134692 0.000944 -0.161361 0.676424 0.460425 0.463440 0.372803 -0.396474 -0.424856 0.289039 -0.498627 0.320311 0.485673 0.108926 -0.408683 -0.127475 -0.672234 -0.130240 
una 0.235609 -0.383204 0.228353 -0.308323 0.385207 -0.145931 0.178225 -0.740938 0.003906 -0.244885 -0.114403 -0.561157 -0.288634 0.243915 0.087723 0.316622 0.403079 -0.208001 0.318260 0.122167 -1.115175 0.233848 -0.166329 -0.399171 0.341838 -0.153618 -0.517543 0.093148 0.204234 0.100648 -0.179877 0.116684 -0.129054 -0.033932 0.407465 0.355925 1.010333 -0.130999 -0.327552 0.055105 0.248130 -0.056383 -0.564677 0.038375 0.458936 0.163590 0.359970 0.304874 -0.495081 -0.082098 
su -0.226764 -0.298680 0.036148 -0.444615 -0.069948 0.088396 0.553901 -0.503178 -0.462925 -0.019074 0.581543 -0.074104 0.179595 0.061128 -0.114091 0.422872 0.349533 0.059670 0.369086 0.510002 -0.608012 -0.260539 0.439591 -0.280176 0.665645 0.168147 -0.297349 0.435281 -0.075470 0.323374 -0.052112 -0.084331 0.149737 0.425105 0.217801 0.102604 0.618910 0.236671 0.190590 -0.036514 -0.114150 0.055346 -0.673675 -0.211146 0.464306 0.139309 0.247723 0.346251 -0.253119 0.203253 
al -0.591220 -0.018906 -0.074848 -0.004856 0.163611 0.021419 0.365265 0.271220 0.211071 0.467207 0.475777 0.042587 -0.127071 -0.377640 0.257485 0.470169 0.846932 -0.276244 0.211978 0.348919 -0.107473 0.742846 0.181337 -0.347251 0.736921 0.018083 0.030356 0.250133 0.040331 -0.015185 0.426213 0.067167 0.733852 0.214805 0.097389 -0.157125 0.087073 0.564884 0.312600 0.094547 -0.172748 -0.037418 -0.586580 0.316472 0.607196 0.316467 0.031918 0.331699 -0.411773 -0.314324 
El -0.235545 0.048148 -0.129637 0.513536 0.611028 -0.245931 0.564498 -0.006796 -0.179835 0.513648 -0.058341 -0.502970 -0.062563 -0.475068 0.018615 0.487555 1.105310 -0.526611 0.155268 0.439172 0.154419 0.434165 0.133854 -0.284312 0.403154 0.352003 -0.215510 0.056090 0.511603 -0.294845 0.109600 -0.104375 0.378933 0.402151 -0.457077 -0.009837 -0.085469 0.584283 0.058495 0.421601 -0.102315 0.354271 0.430559 0.516702 0.462225 0.175233 0.325939 0.566679 0.059149 -0.015894 
no -0.471408 -0.087563 0.215221 -0.166716 0.265417 0.748046 0.025155 -0.431967 -0.368186 -0.209744 -0.267192 -0.151778 -0.474244 -0.648306 -0.001282 0.294410 0.326399 0.094638 0.098247 0.594425 -0.604448 0.208513 -0.317884 -0.068354 0.097417 -0.418194 0.035145 0.312400 0.053485 -0.360218 0.238951 0.393918 -0.425257 0.308946 0.334132 0.485185 0.510530 0.312213 0.727266 -0.073579 -0.567365 0.117965 -0.407981 0.198676 -0.034829 0.479188 -0.321602 0.773353 -0.371169 -0.104241 
EFE 0.723104 -0.594784 0.539435 0.721379 -0.181305 0.135348 -0.343081 0.499492 -0.582440 0.280423 0.394581 -0.408606 -0.887818 -0.055748 -0.854966 -0.022406 -0.141987 0.468884 0.352096 0.350477 0.526532 0.295791 0.425040 -0.785806 -0.345347 0.377411 -0.475597 0.583455 -0.524477 -0.222174 0.319211 0.467920 -0.059438 0.527165 0.352634 0.440115 0.063067 -0.404027 0.870766 -0.235785 0.340068 0.647167 0.698425 0.830046 0.318402 0.519811 0.215827 0.550306 -0.193191 0.662322 
ha -0.360286 -0.206889 0.016585 0.072289 0.445492 1.405267 0.217598 0.397740 -0.615900 0.429612 -0.169573 -0.163239 0.123853 -0.285142 1.309408 0.382390 -0.483216 -1.198052 0.234590 0.929168 -0.170844 0.316154 0.517912 -0.739585 0.419895 0.192553 0.044927 0.393130 -0.180035 -0.279811 0.210934 0.032204 -0.157408 0.737368 -0.147043 0.373600 0.538658 -0.172206 0.202010 0.279127 0.158146 0.207156 -0.810343 0.446953 0.149274 -0.344118 0.556277 0.390856 0.025937 -0.397873 
hoy 0.249737 -0.646026 0.403762 0.700941 0.668546 0.266923 0.341301 -0.038722 0.576427 0.370094 -0.211539 0.139129 0.173302 -0.401806 -0.325835 0.366175 0.211050 -0.908100 0.527357 0.360815 -0.309048 -0.202112 -0.137379 -0.002346 0.350341 0.195066 -0.276052 0.367298 -0.337501 -0.469340 0.012889 -0.389789 0.869172 0.274626 0.346131 0.239335 0.712412 -0.219151 0.504992 0.338357 0.457279 0.234331 0.090876 0.629250 0.797771 -0.186005 0.221532 0.527884 -0.036202 0.657173 
La 0.589963 -0.095300 0.359822 0.447805 0.487870 -0.018266 -0.074956 -0.785605 -0.305199 -0.201981 0.270279 -0.208694 0.181524 0.286055 -0.057270 0.483237 0.681897 -0.600819 0.020064 0.171734 -0.836784 0.408147 0.112452 -0.287553 0.262554 0.040174 -0.583549 0.120963 0.244067 -0.110752 -0.315546 0.504551 0.267164 0.069522 0.302943 0.508665 0.659781 -0.038839 -0.365740 0.224975 0.393016 0.229323 0.725431 0.464277 0.510072 0.054664 0.379230 0.128932 -0.547394 -0.047138 
may 0.426686 -0.460963 0.628790 0.348571 0.038688 -0.073453 -0.397357 0.251108 -0.358823 0.393169 0.403727 -0.308947 -0.755846 0.223769 -0.405450 -0.163178 -0.021056 0.058902 0.181776 0.145927 0.735622 0.231865 0.107739 -0.801658 0.145995 -0.257592 -0.592613 0.770552 -0.259347 0.386325 0.562012 0.803725 0.213608 -0.060852 -0.014488 0.453424 0.377672 -0.453581 1.299512 -0.369821 0.487405 0.617957 0.499952 1.147705 0.480060 0.384338 0.513081 0.340819 0.063176 0.528390 
es -0.396327 0.056340 0.026796 0.004817 0.327606 -0.118970 -0.112138 -0.746913 -0.457639 0.096605 -0.160457 -0.141206 -0.492577 -0.355818 -0.138480 -0.070267 0.322207 -0.221506 0.320562 0.057059 -0.041295 0.534918 0.332961 -0.719988 -0.004537 -0.358231 -0.284537 0.387091 -0.235429 -0.067320 0.133576 0.035915 -0.286829 0.537546 -0.156855 0.229067 0.060871 0.192337 0.348136 -0.680574 -0.357646 -0.119863 -0.170185 0.203508 0.489694 0.323076 0.221811 0.484830 -0.316050 -0.305042 
como -0.269976 0.441818 0.174383 -0.366918 0.410446 -0.070310 0.186765 -0.356385 -0.167761 0.017546 0.065298 0.096925 0.231828 -0.866317 0.006253 0.301996 0.046012 0.239451 0.555703 0.042212 0.225730 -0.059751 0.456520 -0.311157 0.102200 0.431727 0.050262 0.231893 0.005239 0.331799 -0.243918 0.463358 0.066523 0.671738 -0.347419 0.623242 0.072676 0.592697 0.729960 -0.473221 -0.805102 0.602611 0.134910 -0.230840 0.499624 0.381727 0.062026 -0.102310 -0.264080 -0.051477 
más -0.567417 -0.077918 0.335701 -0.260882 0.543898 0.079875 -0.161530 -0.455745 -0.283719 -0.017355 0.008709 -0.405221 -0.543640 -0.333513 0.011239 0.094156 0.338409 0.573795 0.161024 -0.009522 -0.262795 0.522028 -0.007990 -0.413356 -0.183448 0.088159 -0.487667 0.135888 0.093019 -0.131679 0.052643 0.373104 -0.240207 0.704632 0.017311 0.629884 0.591095 0.285450 0.118423 -0.171352 -0.122664 -0.028554 -0.446482 0.105447 0.073630 0.312753 -0.108509 0.194063 -0.062775 -0.342888 
lo -0.575535 -0.103497 -0.029675 -0.224249 0.147376 0.308965 0.407553 -0.360986 -0.317764 0.412340 -0.231841 -0.322822 -0.323454 -0.204029 -0.201021 0.253079 0.642462 0.239532 0.295573 0.345573 -0.371260 0.436589 -0.230104 0.017364 0.159266 0.145442 -0.357498 0.313097 -0.161608 -0.265597 0.343817 -0.211949 -0.316089 0.468689 0.368064 0.397418 0.520688 0.199227 0.235426 -0.183289 0.075768 0.139124 -0.628906 0.189615 0.243398 0.553450 0.063386 0.498225 -0.175367 -0.413899 
este -0.650857 -0.326426 0.028957 0.194366 0.276689 0.063072 -0.085937 -0.114631 -0.353895 0.602587 -0.226386 0.003610 0.250578 0.091802 -0.800803 0.339363 0.458572 0.247188 0.332937 1.023301 -0.021532 -0.072794 -0.053057 -0.477556 0.134798 0.275017 -0.231658 0.276920 -0.013443 0.422008 0.358236 0.418259 0.173159 0.201484 0.030786 0.165023 0.423505 0.792328 0.113335 -0.341740 -0.525719 0.475599 -0.943988 0.212798 0.652332 -0.120092 0.358013 0.485423 -0.549792 0.652019 
entre 0.023539 0.344948 0.235396 -0.040244 0.273032 -0.574166 -0.238155 -0.041341 -0.027528 -0.081237 0.708182 0.034595 -0.622607 -0.192380 0.326924 -0.103168 0.312645 -0.195192 0.110722 -0.060632 0.073836 0.365801 0.602023 -0.090446 -0.371572 -0.284807 -0.390143 0.285068 0.528161 -0.354033 -0.435755 0.585271 0.447498 0.189846 -0.279615 0.484237 0.105617 0.411290 0.736889 -0.066540 -0.618228 0.588735 -0.337314 0.543104 0.217883 0.139176 -0.959767 -0.527914 -0.305616 -0.020703 
sus -0.145544 -0.084749 0.327336 -0.415217 0.001769 0.050322 -0.010388 0.067189 0.018079 0.191612 0.209014 0.260190 -0.258888 -0.123164 -0.190063 0.021205 0.181756 0.334941 0.478124 0.347794 -0.185683 -0.385026 0.475788 -0.265543 -0.126770 0.031010 -0.210834 -0.063852 0.317493 0.052083 -0.094930 0.362150 -0.306755 0.124214 0.022058 0.494017 0.702299 0.039496 0.393235 0.145959 -0.107187 0.632463 -0.884805 0.070790 -0.027435 0.168851 -0.169812 -0.404753 -0.423333 -0.666498 
han -0.220754 0.121467 0.212950 -0.165745 0.255606 1.202216 0.182396 0.420378 -0.485022 0.496424 0.107572 -0.042365 -0.039506 -0.068674 1.137114 0.018433 -0.595085 -0.377789 0.140336 0.843316 -0.032016 0.058997 0.617968 -0.334496 -0.204649 0.223644 -0.287967 0.291328 0.135674 -0.516478 -0.116321 0.404073 -0.311716 0.505746 -0.030740 0.946361 0.425057 -0.521019 0.302729 0.236695 0.008240 0.736664 -1.074919 0.612924 -0.055100 -0.467104 0.014205 -0.028366 -0.279330 -0.649139 
millones -0.169808 -0.708620 -0.351673 0.583488 -0.078162 -0.407142 -0.111784 0.244190 0.257597 1.007427 -0.754174 0.609415 -0.670756 0.081077 -0.145524 1.010876 0.847035 0.166618 0.270673 0.165850 -0.326546 1.261190 -0.613227 -1.166134 -0.410504 0.191810 -0.855263 0.077146 0.252718 -0.252940 -0.874929 0.229573 0.003551 0.377644 -0.161246 0.471169 0.889284 0.951035 -0.216655 -0.537931 0.737084 0.142948 -0.757377 0.306743 -0.028979 0.649000 -0.052543 0.094560 0.004595 -0.358976 
sobre 0.150837 -0.130006 0.053870 0.185241 0.598724 -0.065546 -0.129271 -0.365463 -0.095267 -0.349101 0.304628 0.316559 -0.214169 -0.106659 -0.342020 -0.053648 0.232911 -0.404215 0.521092 -0.080352 -0.392228 0.121404 0.141172 -0.214499 0.078252 -0.364930 -0.245535 -0.105212 0.153981 -0.151963 -0.100489 0.352805 0.074317 -0.172783 -0.144093 0.727324 0.276598 0.212091 0.451254 -0.185178 -0.701432 0.195631 -0.601902 0.419193 0.508099 -0.190346 -0.097236 -0.004136 -0.788649 -0.024275 
esta 0.316501 -0.855616 0.678814 0.193308 0.280731 -0.015981 0.120277 -0.722200 -0.148988 -0.182920 0.544792 -0.404992 0.373587 0.234326 -0.061717 0.456868 0.435324 -0.002139 -0.019177 0.400620 -0.736378 0.207032 0.201298 -0.360713 0.350213 0.218219 -0.003004 0.351795 0.086334 -0.046217 -0.001297 0.476190 -0.266242 0.104132 0.372784 0.369908 0.874681 -0.202758 -0.548016 -0.343123 0.172058 -0.040763 -0.392522 0.337073 0.486573 0.007282 0.006616 -0.016990 -0.833130 -0.202973 
ciento -0.887429 0.103215 -0.565694 0.302410 0.374660 -0.057199 0.220714 -0.261404 0.171668 0.697585 0.154266 1.011876 -0.726520 0.155615 -0.412403 0.032458 0.653319 0.262562 -0.080779 -0.149143 -0.193073 0.966815 -0.598711 -0.974302 0.345047 0.275906 -1.154636 0.720738 -0.319613 -0.223584 0.053287 -0.090373 0.139054 0.595138 0.744843 0.043017 1.005631 0.503782 0.965296 -0.098677 0.648795 0.306713 -0.220612 0.028542 -0.156350 0.436774 0.125256 -0.431520 0.208139 -0.486419 
En 0.042364 -0.317542 -0.518397 0.079014 0.594081 0.278863 -0.091622 -0.213533 -0.059455 -0.466615 0.463766 -0.185083 -0.202373 0.063694 -0.475945 0.105253 0.527237 -0.152087 0.280555 0.269585 -0.432783 0.223745 -0.000286 -0.320475 -0.065428 -0.193949 -0.981421 0.068969 0.272685 -0.363937 0.054933 0.277902 0.006685 -0.295625 -0.109271 1.055882 -0.095675 0.061150 0.313811 -0.227463 -0.081282 0.494779 0.026659 0.766799 0.507064 -0.235898 0.015163 0.769016 -0.368291 0.536824 
presidente 0.338578 -0.732068 0.565510 0.706366 0.537253 -0.337840 0.348637 -0.344107 -0.288206 0.097476 0.145472 0.038633 0.178890 -0.329935 0.143864 0.615940 0.361518 -0.610339 0.597147 0.269699 0.021354 0.261432 0.456640 -0.442547 0.070811 -0.062890 0.003916 -0.119160 0.125894 -0.232057 0.133861 -0.239683 -0.247962 0.318186 -0.098308 -0.342570 0.252518 0.012031 0.541929 -0.141761 -0.301878 0.295323 -0.175546 0.086689 0.132842 0.338210 0.129672 0.450341 0.281524 0.310848 
dos -0.424196 -0.066216 0.387482 -0.191391 0.225915 -0.147833 0.278604 0.207150 0.315815 0.303222 0.426006 -0.363780 -0.315527 -0.110917 0.462968 0.144324 -0.097330 0.301894 0.369816 0.238693 0.013662 0.164350 0.569626 -0.219671 -0.188048 0.198059 -0.572615 0.064808 0.468110 -0.408708 -0.287072 0.203130 0.100346 0.480777 -0.162207 0.636696 0.390492 -0.032751 0.206534 0.011110 0.300169 0.677755 -0.642143 0.070272 -0.199192 0.347442 -0.402769 0.153008 0.105097 -0.103891 
Madrid -0.325722 -0.337732 0.532757 0.184975 0.255055 -0.077619 0.406051 0.127247 -0.737072 0.271730 0.792098 -0.431740 -0.085678 -0.279303 -0.115102 0.430827 0.453979 -0.152818 0.071730 0.199078 0.081618 0.325087 0.357882 -0.364465 0.014228 0.320204 -0.425400 0.454706 -0.518870 -0.125217 0.414558 0.344388 -0.187161 0.191281 0.277231 -0.269741 -0.176253 -0.288896 0.946678 -0.504203 0.419816 0.666640 0.273510 0.527995 -0.048979 0.305086 -0.185913 0.106240 0.122880 -0.025714 
años -0.680365 -0.253005 0.195493 -0.516835 0.211701 -0.103660 0.418894 0.410428 0.271708 0.703908 0.211984 -0.068784 -0.444009 0.294648 0.251219 0.377530 -0.059164 0.285437 0.609250 0.316607 -0.088512 0.230316 0.309505 -0.889742 -0.490384 0.160343 -0.678965 -0.273671 0.035037 0.163205 -0.161958 -0.134819 0.182869 0.620469 -0.150260 0.485880 0.697942 -0.181297 -0.148512 0.454153 1.181563 0.684741 -0.746750 -0.343107 -0.423839 0.721579 0.208238 0.775298 0.298483 -0.091478 
Los -0.101479 0.026976 0.253045 0.121401 0.300835 -0.055957 -0.031412 0.549386 0.130130 0.057638 0.406776 -0.123383 -0.167739 0.063785 0.072291 -0.115728 0.558749 0.183512 0.334274 0.391063 0.183614 0.212256 0.768392 -0.153829 -0.647868 0.178038 -0.728760 -0.159674 0.435817 -0.226127 -0.115748 0.496415 -0.139272 0.093294 -0.310390 0.626846 0.284331 -0.015385 0.324252 0.076547 0.155006 0.731565 -0.071052 0.540803 -0.041299 0.116098 -0.174752 -0.206537 -0.270497 -0.363344 
también -0.023501 -0.191152 0.372951 -0.061833 0.252842 0.042471 0.323004 -0.351815 -0.171277 0.089619 0.236278 0.067628 -0.083473 -0.134507 -0.039933 0.282850 0.279854 -0.037544 0.294380 0.236453 -0.149677 -0.013618 0.235881 -0.214815 0.119499 -0.103937 0.008818 0.258641 0.176004 -0.220784 -0.173843 0.167069 -0.271341 0.310498 0.103084 0.214348 0.463028 0.318651 0.446000 -0.094655 -0.281066 0.335222 -0.267638 -0.035155 0.212441 0.246515 -0.086584 0.071520 -0.233780 0.113301 
Gobierno 0.232098 -0.528704 0.422858 0.690774 0.536161 -0.359266 0.353103 -0.378122 -0.082157 0.217290 0.094605 0.122594 0.001213 -0.459306 0.203560 0.408431 0.495682 -0.655302 0.833353 0.095499 -0.209098 0.049505 0.029027 -0.250506 0.409449 -0.067301 0.197020 0.170506 0.284069 -0.273355 -0.052730 -0.205225 -0.085849 0.273028 0.023223 0.055971 0.230565 0.143740 0.363867 -0.008644 -0.664470 0.174227 -0.561226 -0.220645 0.317610 0.340769 -0.245150 -0.038688 0.026309 0.053969 
ya -0.173031 -0.009435 0.307876 -0.052050 0.236654 0.184127 0.332135 -0.355797 -0.102998 0.265981 -0.183099 -0.394947 -0.258894 -0.237594 0.240020 0.288953 0.578566 -0.149276 0.150498 0.388248 -0.066684 0.176021 0.109017 -0.232381 -0.024275 -0.197045 -0.031178 0.123045 0.081505 -0.251901 0.056565 0.128486 -0.289614 0.493539 0.094628 0.755401 0.575594 0.111314 0.085574 -0.112227 0.018370 0.144947 -0.401723 0.263378 0.184304 0.376756 -0.203070 0.253973 -0.343074 -0.191004 
según 0.010800 -0.251456 0.429899 0.638208 0.321451 0.258901 0.070018 0.053943 -0.096368 -0.059286 -0.182129 -0.250624 -0.012004 -0.187778 -0.150088 -0.085781 0.143807 -0.187890 0.848851 0.512155 -0.195992 0.071631 0.106631 -0.094900 0.382784 -0.027486 -0.287826 0.190230 -0.074036 -0.353694 -0.106506 0.283305 0.040190 0.482422 0.141688 0.534540 0.386150 0.079405 0.224351 -0.051607 -0.156227 0.409921 -0.160667 0.333622 0.497226 -0.004971 -0.163292 0.333543 -0.108322 0.226325 
o -0.368873 0.281527 -0.089615 -0.233560 0.383414 -0.026424 0.108927 -0.068644 -0.207167 0.058136 0.054823 0.342522 -0.369404 -0.197585 -0.341185 0.250673 0.288565 0.151313 0.105279 0.035278 -0.134079 0.242565 0.184336 -0.379721 -0.296335 0.142657 -0.217800 0.121855 0.110710 0.057891 -0.098087 0.116013 -0.112343 0.285942 -0.077773 0.582629 0.544752 -0.018519 0.565796 0.079774 -0.290866 0.353190 -0.389169 0.051044 0.194824 0.058709 0.097588 -0.164969 -0.256026 -0.453293 
año -0.461249 -0.353888 -0.467352 0.278032 0.484377 -0.042602 0.033775 -0.129280 -0.055408 0.434177 -0.114171 -0.335204 -0.131795 0.223715 -0.406573 0.412164 0.488814 -0.188027 0.421136 0.387344 0.026170 0.611750 -0.182418 -1.043226 0.068661 0.271973 -0.771925 0.226611 0.363940 0.095480 0.071317 -0.025459 0.002505 -0.072650 0.173191 0.932298 0.466671 0.467352 0.229151 -0.012367 0.015980 0.067800 -0.581777 0.225478 0.139212 0.227941 -0.336679 0.299691 0.222819 -0.117150 
desde -0.346882 0.041682 0.213741 -0.148463 0.402594 0.117759 0.358438 -0.240457 0.191131 0.008737 0.965152 -0.216833 -0.083244 -0.002251 0.359025 0.248209 0.150595 0.036274 0.095132 0.580855 0.158453 0.602426 0.121019 -0.251685 0.070171 0.328987 -0.314150 0.268126 0.127715 0.034930 0.181259 0.088558 0.305170 0.274362 0.048218 0.586101 0.285820 0.156373 0.145956 0.048258 0.196790 0.254275 -0.562004 0.226476 0.332630 0.172196 -0.348124 0.352480 0.011195 0.034504 
parte -0.043410 -0.082995 0.069719 -0.283642 -0.305448 0.061519 0.745878 -0.727425 -0.610105 0.114527 0.446405 0.592945 0.301979 0.005816 0.101881 -0.126715 0.773140 -0.076137 0.382851 -0.035638 0.180711 0.180416 0.391059 -0.295905 0.516937 -0.255702 -0.698085 0.150889 0.488765 -0.494917 0.308321 -0.172481 -0.032574 0.711450 0.343009 0.312235 0.639229 -0.154103 0.390771 0.092560 0.052139 0.379195 -0.180329 0.015295 0.459819 0.285537 0.287815 -0.050943 -0.081764 0.307108 
pesetas -0.142669 -0.469037 -0.132819 0.398214 -0.071426 -0.339757 0.157151 0.274442 0.048539 0.703653 -0.744994 0.026160 -0.616405 0.007611 -0.263228 0.776871 0.611254 0.281908 0.470496 0.293804 -0.356432 0.933308 -0.537443 -1.065063 -0.227723 0.168395 -0.697470 0.369635 0.103403 -0.106751 -0.682336 0.232491 0.059923 0.569163 -0.090493 0.546849 0.975891 0.629279 -0.205130 -0.429057 0.662284 0.168124 -0.449599 0.167975 -0.100887 0.553056 -0.208257 -0.168287 0.259063 -0.368636 
fue -0.302935 -0.165555 -0.104162 -0.112181 0.389924 0.033924 0.323503 -0.348990 0.162945 0.228703 0.386186 0.114943 -0.320214 0.142455 -0.129192 0.072958 0.057286 -0.263299 0.399253 0.400480 -0.272272 0.756761 0.115922 -0.377450 0.359774 0.397177 -0.353444 0.545833 -0.193425 0.224072 0.190848 -0.428550 0.231880 0.330374 0.029972 0.117546 0.536818 0.219623 0.201048 0.217644 0.219363 0.099859 -0.487842 -0.112781 0.365921 0.103323 0.386504 0.407467 0.165684 -0.222804 
dijo -0.060838 -0.324574 0.306331 0.263534 0.343483 0.205287 0.461021 -0.012051 -0.503010 0.220846 -0.058654 -0.423974 -0.216031 -0.291857 -0.085663 -0.068183 0.371062 -0.399014 0.808923 0.326311 -0.052761 0.010806 0.171787 -0.029274 0.304581 -0.278503 0.071977 0.317722 -0.068696 -0.303862 0.408499 -0.034352 -0.270854 0.340097 -0.052523 0.237540 -0.004914 -0.081676 0.593218 -0.097078 -0.326850 0.329573 -0.376568 0.107132 0.381415 0.218638 -0.172082 0.527180 -0.054897 0.001580 
está -0.222668 -0.130995 0.110275 0.174999 0.357397 0.035756 0.145279 -0.406922 -0.296914 0.181863 -0.042100 -0.299290 -0.381990 -0.198951 -0.177415 0.281486 0.336491 -0.269488 0.224706 0.434004 -0.092766 0.429699 0.168535 -0.454113 0.126108 -0.075808 -0.082871 0.420415 -0.151665 -0.084500 0.112702 -0.000613 -0.078113 0.177617 0.010628 0.321282 0.323808 0.184635 0.282499 -0.293440 -0.306935 -0.074533 -0.363280 0.335317 0.353161 0.217942 -0.179886 0.250617 -0.226312 -0.146312 
hasta -0.289018 0.094050 -0.199251 0.376378 0.361031 0.320872 0.289920 -0.192162 -0.054655 0.342505 0.448798 0.001390 -0.247899 0.162158 -0.060719 0.322552 0.439138 -0.024238 -0.053190 0.453967 -0.113265 0.833035 0.048757 -0.271904 0.011725 0.100789 -0.358647 0.465554 -0.037913 -0.132421 0.167749 0.058936 0.453589 0.416026 0.376086 0.604038 0.614291 0.427159 0.482718 0.065565 0.358474 0.148774 -0.251869 0.371910 0.415499 0.023476 -0.554233 -0.106598 0.028106 -0.061316 
pasado -0.406375 -0.342954 -0.251366 0.587890 0.658274 0.040229 0.229590 -0.309079 0.009414 0.552503 0.732749 0.070371 -0.049690 0.405672 -0.426880 0.489269 0.295906 -0.105434 0.039749 0.886582 0.291261 0.734682 0.058737 -0.460622 -0.034853 0.506120 -0.429820 0.325395 0.154141 0.284050 0.311932 -0.360576 0.740849 0.346576 0.120487 0.422661 0.524810 0.382028 0.175963 0.003904 -0.011010 0.217181 -0.608079 0.334314 0.451874 0.069220 -0.399936 0.143534 0.183882 0.364940 
pero -0.367933 0.264000 0.016508 -0.242510 0.597064 0.263906 0.123591 -0.490517 -0.345106 0.024419 0.161407 -0.245030 -0.624946 -0.451999 -0.184354 0.752729 0.599400 0.028455 0.103769 0.263478 -0.349273 -0.037747 0.110300 -0.295820 0.001796 0.045587 0.024448 -0.060698 0.031978 -0.114979 0.268536 0.112733 -0.355863 0.248150 0.073626 0.658703 0.324749 0.029334 0.207699 -0.055418 -0.207376 -0.092675 -0.553968 0.175952 0.325446 0.337253 -0.082804 0.290162 -0.412117 -0.350762 
tres -0.558110 -0.176457 0.227007 -0.100294 0.221157 -0.198312 0.232926 0.256754 0.293538 0.365871 0.480793 -0.214724 -0.396213 -0.036097 0.332679 0.196715 0.155372 0.373884 0.397492 0.108465 -0.054488 0.272015 0.223276 -0.329279 -0.150261 0.129119 -0.649757 0.249398 0.373183 -0.234454 -0.346167 0.220580 0.119918 0.491673 -0.116299 0.570793 0.576028 0.051902 0.174733 -0.105353 0.382191 0.486268 -0.590013 0.097942 -0.127016 0.437767 -0.396474 -0.002456 -0.019927 0.031246 
le -0.421247 -0.075735 0.157719 -0.490773 0.238415 0.398578 0.449443 -0.266229 -0.134956 0.080164 0.266483 -0.111844 -0.420063 -0.316225 0.004722 0.473159 0.225555 -0.225934 0.362988 0.447586 -0.242274 0.121769 -0.077744 -0.339820 0.162628 0.092213 0.120058 0.414123 -0.220654 0.022755 0.204282 -0.077594 -0.037283 0.347744 0.086093 0.355911 0.176275 0.053591 0.374391 -0.023293 0.183713 0.083585 -0.491583 -0.107349 0.248050 0.420274 -0.116547 0.794403 -0.102652 -0.289068 
contra -0.196479 0.060454 0.235677 -0.127836 0.462702 -0.048145 0.200357 -0.445871 0.069429 -0.104011 0.669393 0.441224 0.000455 -0.192855 0.024065 -0.066255 0.154072 -0.311176 0.481711 0.103557 -0.183157 0.120683 0.329314 -0.079842 0.056514 -0.139751 -0.199082 0.024827 0.098208 -0.213280 -0.085062 0.149159 0.144912 0.079362 0.216560 0.439276 0.334400 -0.024747 0.451439 0.157288 -0.267800 0.327275 -0.436015 0.126465 0.548034 0.076809 -0.072646 -0.109820 -0.322626 -0.058490 
tiene -0.141680 -0.053359 0.055372 0.027253 0.344517 -0.241801 0.051309 -0.524122 -0.570269 0.254928 -0.116110 -0.286461 -0.431254 -0.150487 -0.117265 0.003869 0.414321 -0.437719 0.252371 0.070126 -0.048110 0.391138 0.221713 -0.526992 -0.001946 -0.214812 -0.123468 0.364793 -0.222318 0.089532 0.081725 -0.019633 -0.137144 0.302398 -0.171094 0.381840 0.280303 0.116226 0.425825 -0.434938 -0.420842 -0.123536 -0.316780 0.367002 0.531202 0.211258 0.047307 0.246116 -0.373700 -0.132903 
mañana 0.301327 -0.546102 0.491089 0.298082 0.320466 -0.176553 0.443409 -0.362792 -0.283851 0.126414 0.926359 -0.316842 0.161257 -0.011241 0.038470 0.598820 0.402926 -0.221395 -0.108521 0.468521 -0.130075 0.610273 0.360280 -0.162092 0.159650 0.198406 -0.191780 0.409410 0.092380 -0.294900 -0.127923 0.133126 0.288161 -0.169306 0.151673 0.331663 0.312242 -0.123687 0.071900 -0.273092 0.009522 0.309480 -0.112727 0.696604 0.299106 -0.103588 -0.433544 -0.198845 -0.167948 0.320535 
donde -0.132577 0.065503 0.240637 -0.147832 0.294855 0.054351 0.145490 -0.418958 -0.076322 -0.060403 0.531693 -0.045043 -0.278942 -0.198909 0.136419 0.439524 0.190916 -0.019853 0.011575 0.299257 -0.236269 0.143792 0.139974 -0.266692 0.134212 0.055887 -0.403523 0.353929 0.201254 -0.108412 -0.104075 0.368791 0.187798 0.028489 0.229973 0.564029 0.360716 -0.055678 0.231048 0.093519 0.094850 0.276596 -0.153506 0.382203 0.184259 0.061907 -0.201884 0.158844 -0.238414 -0.025229 
ser -0.396077 -0.169152 0.078777 -0.209556 0.240691 0.242320 0.078375 -0.328397 -0.160327 0.115434 -0.149255 -0.028555 -0.396530 -0.353156 -0.350874 0.317014 0.285757 0.017392 0.587594 0.259201 -0.427172 0.047613 -0.044208 -0.235369 0.166570 -0.190864 0.004866 0.140333 -0.019849 0.025367 0.120635 0.069913 -0.114856 0.356799 0.226634 0.504471 0.417887 -0.011429 0.383702 0.087298 -0.180824 0.243843 -0.527363 -0.064727 0.167807 0.406023 -0.076936 0.386512 -0.182719 -0.151984 
España -0.225899 -0.140988 0.357427 -0.050257 0.282104 -0.271484 0.135121 -0.337648 -0.404019 0.444838 0.220428 -0.353911 -0.196742 -0.181208 -0.057585 0.226840 0.435462 0.043243 0.031234 0.251673 0.032433 0.072772 0.260365 -0.359123 0.003510 0.106647 -0.551783 0.491897 -0.100417 -0.021638 0.102996 0.492579 -0.057096 0.015523 0.166016 0.285321 0.295814 0.063029 0.327723 -0.240635 -0.141931 0.449203 -0.181756 0.369882 0.034457 0.266642 -0.155260 -0.001469 -0.036399 0.001847 
si -0.315646 0.123076 -0.039700 -0.080815 0.410037 0.361568 0.245351 -0.469796 -0.488801 -0.043166 0.173406 -0.191182 -0.606717 -0.414329 -0.235918 0.668685 0.401389 -0.160663 0.136431 0.407791 -0.254122 0.069841 -0.081586 -0.132820 0.074459 -0.141792 0.146146 0.218596 0.027517 -0.313602 0.208638 0.103357 -0.393140 0.180958 0.157585 0.549137 0.250483 0.128728 0.523510 -0.106757 -0.419343 -0.026396 -0.472715 0.229483 0.211431 0.320341 -0.293216 0.447885 -0.408721 -0.049209 
tras -0.213087 -0.153930 0.012573 -0.149833 0.525881 0.106912 0.313775 -0.175394 0.220713 -0.029244 0.843657 0.102241 -0.009916 0.030053 0.227258 0.144716 0.278535 -0.156121 0.415767 0.396220 -0.333384 0.474924 0.272738 -0.154981 0.236001 0.178301 -0.477295 0.080711 0.178457 -0.178102 -0.079273 -0.058901 0.367328 0.180084 0.003631 0.479294 0.385036 0.270784 0.058228 0.185653 0.188334 0.080076 -0.477878 0.121373 0.576609 0.050083 -0.083948 0.172517 -0.134304 0.071034 
grupo -0.056626 -0.312344 0.212597 0.412851 0.513330 -0.235214 0.217051 -0.133307 -0.038483 0.230519 -0.048672 0.082918 -0.067387 -0.059727 0.176930 0.110138 0.253834 -0.384640 0.747082 0.161262 -0.100316 0.248401 0.204161 -0.357408 0.122651 0.031994 -0.257680 -0.005543 0.132290 -0.074606 -0.224515 -0.100956 -0.012215 0.391961 0.029195 0.291894 0.300500 0.049675 0.384125 0.195068 -0.245620 0.317657 -0.219440 -0.057924 0.348036 0.333318 -0.026725 0.084592 0.042310 0.033226 
próximo -0.058991 -0.503860 0.085335 0.539919 0.523599 -0.167720 0.425912 -0.458183 -0.533734 0.362139 0.911640 -0.044107 0.339970 0.210428 -0.545252 0.614212 0.268951 -0.428249 -0.159553 0.962058 0.187700 0.683711 0.004529 -0.028315 -0.024478 0.433738 -0.278000 0.189841 0.106471 0.252822 0.227447 -0.220385 0.771623 -0.327188 0.348233 0.592347 0.295801 0.169738 0.502806 -0.064651 -0.306528 0.327241 -0.602553 0.891430 0.527096 0.013923 -0.611357 -0.107479 -0.100529 0.304806 
son -0.353969 0.253189 0.260921 -0.003146 0.272512 0.006116 0.162655 0.116799 -0.309494 0.373414 0.159259 -0.131795 -0.586577 -0.204575 0.038385 -0.135517 0.189372 0.197904 0.244335 -0.059501 0.053727 0.071626 0.399497 -0.378990 -0.269337 -0.235168 -0.397849 0.158922 0.055063 -0.277036 -0.028106 0.289611 -0.140740 0.274691 -0.170346 0.572237 0.274664 -0.229431 0.618185 -0.182134 -0.164669 0.416383 -0.402059 0.341732 0.053010 0.091624 -0.084097 -0.042628 -0.432989 -0.308416 
durante -0.419714 -0.204030 0.153546 -0.068946 0.577831 0.125979 0.162869 -0.102665 0.242344 0.024378 0.652030 -0.279385 0.002643 0.222936 0.110196 -0.004052 0.161881 -0.271025 0.499183 0.437373 -0.207165 0.386862 0.330383 -0.166844 0.061789 0.012037 -0.690500 0.161156 0.163620 -0.220646 -0.114113 0.204461 0.376070 0.156662 0.049249 0.848998 0.342187 0.021384 0.009603 0.061065 0.297078 0.324196 -0.513197 0.347622 0.316491 0.009837 -0.333904 0.306134 -0.056988 0.279917 
sido -0.511067 0.061556 0.408321 0.106046 0.252368 0.448575 0.304185 -0.176437 0.258403 0.286356 -0.224472 0.060950 0.012222 -0.043622 0.147340 0.276482 0.381986 -0.218116 0.419071 0.590035 -0.025408 -0.056432 0.372001 -0.276437 0.153078 -0.222829 0.143633 0.096922 0.125940 -0.088810 0.102293 0.193765 -0.039437 1.052753 0.417003 0.413114 0.709391 -0.157622 0.246696 0.238820 0.273512 0.537740 -0.406266 -0.229141 0.171353 0.331902 -0.265609 0.317026 -0.244408 -0.246903 
cuando -0.365379 -0.010677 -0.119514 -0.042898 0.441774 0.173415 0.260473 -0.286240 -0.050904 0.204276 0.461165 -0.085605 -0.342845 -0.137735 -0.040337 0.627571 0.171426 -0.128944 0.229271 0.498159 -0.141526 0.400013 -0.125387 -0.153175 0.022618 0.282769 -0.151022 0.157888 0.228070 -0.068654 0.047446 -0.117514 0.104879 0.203021 -0.127683 0.583718 0.356180 0.289547 0.205011 0.124639 0.047103 0.095561 -0.408778 0.229265 0.316354 0.256690 -0.173592 0.497932 -0.098941 0.135108 
sin -0.320920 -0.019963 0.047439 -0.494361 -0.034846 -0.040207 -0.064566 0.012179 -0.355210 -0.082258 -0.066081 -0.081453 -0.573704 -0.121971 -0.301831 0.214495 0.346186 0.087950 0.267829 0.122679 -0.291503 0.290698 -0.073493 -0.352607 -0.215053 -0.028835 -0.145158 0.312937 -0.100747 -0.036176 -0.180538 0.471885 -0.296507 0.339635 -0.171346 0.610636 0.339462 0.153903 0.292738 -0.183036 0.085182 0.269141 -0.423763 0.187232 0.275599 0.320706 0.057020 0.344284 -0.383512 -0.645495 
Las 0.133139 0.028364 0.214850 0.188898 0.243521 -0.020670 -0.121071 0.125531 0.025656 0.203620 0.165556 0.099536 -0.212869 -0.032321 -0.268764 0.138105 0.336427 0.076070 -0.036426 0.371392 -0.208535 0.036157 0.232062 -0.146406 -0.190273 0.173647 -0.508362 0.103149 0.357613 -0.310592 -0.133002 0.417234 0.137203 0.156705 -0.064126 0.659287 0.479811 -0.028859 0.426532 0.144002 0.178472 0.808001 -0.239739 0.640673 -0.027448 -0.116079 -0.154608 -0.139639 -0.078765 -0.289564 
A 0.197907 -0.084787 0.210047 -0.060140 0.062414 -0.070068 0.129623 0.395015 0.225131 -0.213110 0.818393 0.116070 -0.607480 0.077615 -0.254982 0.191009 0.208941 0.203786 0.290505 0.059552 -0.058412 0.237013 -0.022414 -0.785750 -0.150766 0.140987 -0.589734 0.181262 0.032063 -0.129847 -0.124627 0.122697 -0.043439 -0.062068 -0.307438 0.587239 0.216604 -0.219322 0.356410 0.032775 0.832654 0.465600 0.066679 0.424756 0.008513 0.179229 0.271868 0.505561 0.044159 -0.088421 
otros -0.359703 0.058049 0.515807 -0.185258 0.214550 -0.433241 0.197584 0.183470 -0.146991 0.534281 0.096776 -0.091832 -0.406849 -0.092251 0.054160 0.014517 0.188494 0.319040 0.446853 0.078363 -0.044229 -0.174946 0.713089 -0.215544 -0.477460 -0.009181 -0.261957 0.111919 0.357565 -0.033301 -0.288034 0.182118 -0.197845 0.208115 -0.213864 0.395994 0.426378 -0.019519 0.375533 0.134485 -0.328890 0.753008 -0.551787 0.128372 -0.084658 0.288560 -0.246964 -0.299008 -0.266364 -0.237077 
muy -0.678771 0.050658 -0.072272 -0.395971 0.460521 0.244437 0.061946 -0.402950 -0.372771 0.132224 -0.133545 -0.397759 -0.832765 -0.174351 -0.391465 0.305922 0.497176 -0.000106 0.278290 0.319128 -0.350672 0.205330 -0.074921 -0.278482 0.231611 -0.012880 -0.138369 0.432808 -0.279804 0.078398 0.331305 0.096815 -0.380102 0.463424 0.191205 0.251930 0.392804 0.357598 0.521894 -0.038318 -0.092510 -0.039105 -0.407653 -0.040933 0.126839 0.472612 0.162879 0.729038 -0.235349 -0.259570 
ante 0.101679 -0.196316 0.267950 0.218756 0.524897 0.125451 0.396164 -0.515347 -0.367264 -0.211269 0.569644 -0.051433 0.093018 -0.293355 -0.064825 0.239927 0.307901 -0.531518 0.250338 0.354894 -0.260447 0.363088 0.167069 -0.040758 0.187877 -0.110661 -0.080119 0.216401 -0.104684 -0.222994 0.121074 0.118891 0.076648 0.033771 0.293494 0.367036 0.174586 -0.097396 0.429380 -0.129541 -0.226758 0.209160 -0.150667 0.360731 0.504136 -0.032669 -0.156473 0.184525 -0.225594 0.305801 
José 0.569256 -0.641519 0.814422 0.733225 0.356666 -0.292818 0.608049 0.151543 -0.066369 0.155332 0.442143 0.199195 0.079588 -0.404079 0.071321 0.493633 0.261259 -0.449025 0.754103 0.213029 -0.019395 0.209753 0.391219 -0.418020 0.111636 0.159693 0.176521 0.339704 0.275754 -0.215226 -0.014459 -0.355181 -0.029506 0.054034 -0.171732 -0.365185 -0.013691 -0.024201 0.529966 0.068221 -0.295628 0.675753 -0.020125 -0.148646 0.248018 0.296838 0.124613 0.418086 0.015504 0.235986 
porque -0.360557 0.295113 0.072916 -0.289369 0.510403 0.283835 0.145698 -0.577355 -0.292812 -0.129009 0.024174 -0.194220 -0.625505 -0.496114 -0.200128 0.483976 0.380661 -0.158737 0.252923 0.262602 -0.281918 -0.110567 -0.035456 -0.302319 0.022966 -0.153962 0.066823 0.063255 0.015268 -0.198279 0.129558 0.127900 -0.416325 0.301644 0.012517 0.645691 0.357887 0.133702 0.369545 -0.126403 -0.233508 -0.084339 -0.450375 0.159958 0.332721 0.320382 -0.074645 0.520580 -0.483668 -0.242290 
país -0.166198 -0.133069 0.096979 0.041875 0.453197 -0.240659 0.094657 -0.394091 -0.227590 0.161018 0.250063 -0.102117 -0.242069 -0.068397 -0.181723 -0.099906 0.288688 -0.156184 0.639682 0.054150 0.087035 0.162480 0.122304 -0.563994 -0.089491 -0.071523 -0.371803 0.117707 0.220264 -0.085212 0.015849 0.067965 -0.193974 0.039217 0.098730 0.856649 0.173398 0.000254 0.239182 -0.015786 -0.321667 0.158039 -0.400040 0.214122 0.227020 0.394018 -0.355804 0.172865 -0.092403 0.009611 
Por 0.302362 0.158587 -0.115489 -0.145224 0.075036 0.345779 0.720027 -0.517849 -1.007832 -0.228278 0.855772 0.125908 0.270138 -0.138064 0.172341 -0.012436 0.751588 0.131149 0.388809 -0.078250 0.129885 -0.129231 0.631395 -0.459583 0.525659 0.034687 -0.596244 0.040619 0.206178 -0.530742 0.514051 0.216196 -0.436330 0.453500 -0.169494 0.462362 0.106823 0.258114 0.896846 -0.220515 0.234064 0.292690 0.039951 0.144261 0.715335 -0.015908 0.236106 0.198085 0.235505 0.104499 
Según 0.114215 -0.178730 0.230474 0.774676 0.454383 0.289022 0.096354 0.019009 -0.133528 -0.106965 -0.047665 -0.103434 0.120279 -0.193781 -0.352422 -0.021453 0.277439 -0.402865 0.674861 0.381910 -0.203922 0.069428 0.060005 -0.125218 0.252392 -0.088840 -0.405923 0.135437 0.089038 -0.370342 -0.057736 0.222938 0.161705 0.267903 0.237960 0.473269 0.281651 -0.085112 0.554136 0.199717 -0.071480 0.662115 0.177189 0.476519 0.418327 -0.220723 -0.101778 0.285039 -0.019521 0.219205 
general 0.258222 -0.331275 0.344258 0.753183 0.487393 -0.076157 0.676294 -0.056848 -0.281554 0.307049 0.142390 0.212245 0.199414 -0.472788 0.113971 0.538626 0.282158 -0.406454 0.588220 0.467311 0.062354 0.354050 0.215946 -0.390823 0.317600 0.320885 -0.094742 0.281384 0.070271 0.034750 0.046947 -0.324317 0.010756 0.292821 0.052242 -0.331763 0.495962 0.306974 0.593465 -0.043343 -0.139572 0.375333 0.183548 0.054320 0.546759 0.158365 0.130456 0.126055 0.446928 0.223117 
e 0.115966 0.192901 0.079601 -0.085198 0.305206 -0.206486 0.094259 -0.228241 -0.043223 0.004228 0.091772 0.306461 -0.450229 -0.288468 -0.184278 0.159519 0.290525 -0.050221 0.178535 0.023383 -0.273079 0.237107 0.169739 -0.340529 -0.107336 0.081355 -0.150546 0.176843 0.183409 0.029482 -0.233821 0.001290 0.030979 0.279896 -0.119798 0.359155 0.449548 0.132884 0.333893 0.070889 -0.197548 0.343435 -0.205089 0.166468 0.302496 0.062462 0.154004 -0.075044 -0.364817 -0.482023 
equipo -0.316604 -0.358040 0.192193 -0.006867 0.462298 0.002039 0.328802 -0.296805 -0.404127 0.214492 0.453083 -0.127633 -0.144052 -0.216201 -0.003804 0.474750 0.485280 -0.450959 0.113910 0.209228 -0.003709 0.368348 0.140335 -0.374093 0.136167 0.112048 -0.062202 0.262400 -0.323747 0.022402 0.478609 -0.003549 -0.130336 0.187781 0.441898 0.249293 0.033833 -0.108586 0.683385 -0.150109 0.011492 0.150705 -0.200770 0.090531 0.166327 0.580321 -0.128356 0.292282 0.091552 -0.039712 
aunque -0.414469 0.044002 -0.087723 -0.053559 0.528828 0.263086 0.138983 -0.308322 -0.093692 0.164653 0.059074 -0.206907 -0.452869 -0.239378 -0.092463 0.450931 0.543346 -0.139871 0.272970 0.256333 -0.308998 0.194912 0.068479 -0.240495 0.028178 0.031409 -0.188228 0.118149 -0.045807 -0.114394 0.150157 -0.009015 -0.093021 0.281501 0.193564 0.673626 0.413791 0.211820 0.273468 -0.064173 -0.057429 -0.001158 -0.498501 0.231079 0.366382 0.237353 -0.236650 0.214281 -0.313204 -0.173352 
partido -0.181950 -0.415119 0.195905 -0.052723 0.369945 -0.009039 0.637788 -0.386128 -0.576991 0.220898 0.581197 -0.021203 0.115874 -0.153743 -0.148576 0.463029 0.562977 -0.525587 0.106984 0.330066 -0.051978 0.296659 0.166262 -0.267881 0.249344 0.144009 -0.087544 0.269626 -0.313032 0.004730 0.464370 -0.169437 0.042043 -0.023277 0.505362 0.263242 0.141501 -0.228814 0.665369 -0.040437 -0.056464 0.176897 -0.079768 0.162854 0.352240 0.401775 -0.034009 0.224245 0.017428 0.153872 
todos -0.467689 -0.010703 0.212970 -0.038294 0.481628 -0.025948 0.091173 -0.125912 -0.288105 0.486948 0.054244 -0.151506 -0.454706 -0.303465 -0.168418 0.109109 0.265185 0.013841 0.616771 -0.082655 -0.171036 -0.004226 0.290645 -0.124503 -0.462082 -0.318267 -0.024307 0.055436 0.170194 -0.214650 -0.176601 0.271878 -0.168357 0.108042 -0.114100 0.562862 0.294503 0.077475 0.392813 0.007914 -0.281487 0.399694 -0.478582 0.177959 0.146023 0.266874 -0.202590 0.050215 -0.445386 0.014798 
mientras -0.276651 0.030140 -0.047840 0.106335 0.386678 -0.001161 0.355461 0.159082 0.101492 0.459965 0.382978 -0.000221 -0.360476 -0.117246 0.157881 0.097792 0.556807 0.057998 0.213268 0.065594 -0.044306 0.498274 0.072881 -0.161031 -0.027772 0.200754 -0.383351 0.367578 -0.044708 -0.170180 -0.051834 -0.103970 0.290166 0.497162 -0.113739 0.443209 0.247785 0.365922 0.447469 -0.068348 0.227618 0.252159 -0.211874 0.235688 0.469175 0.196541 -0.191106 -0.056908 -0.074059 -0.208547 
Barcelona 0.043228 -0.437410 0.580723 0.214404 0.159719 0.041272 0.253515 0.141132 -0.411274 0.311252 0.622622 -0.245877 -0.083943 0.037456 -0.168927 0.378321 0.311850 -0.086994 0.043489 0.422897 0.142380 0.080606 0.273051 -0.488126 -0.116430 0.263447 -0.386884 0.384127 -0.207281 -0.069733 0.200483 0.497038 -0.124296 0.081906 0.230693 0.110582 0.130841 -0.284262 0.584207 -0.066204 0.444542 0.707288 0.223581 0.423282 -0.149571 0.329241 -0.061466 0.295823 0.112073 0.063132 
PP 0.071852 -0.341804 0.580453 0.439925 0.537494 0.048276 0.500784 -0.286219 -0.197248 0.164123 0.359026 0.050271 -0.118778 -0.350954 0.062156 0.265708 0.372749 -0.376390 0.723758 0.255852 0.083493 0.013993 0.189815 -0.289403 0.311775 0.059704 0.122997 0.156555 -0.048185 -0.106351 0.267859 -0.290715 -0.310729 0.298770 0.151526 -0.145327 0.112412 -0.215501 0.629218 0.164237 -0.312883 0.235302 -0.103155 -0.189787 0.216970 0.492194 0.071014 0.413608 0.078250 -0.014554 
después -0.311958 -0.094800 0.002499 -0.046695 0.643371 0.013022 0.467934 -0.177600 -0.027862 0.344682 0.516313 0.113338 -0.014549 -0.132081 0.303722 0.247873 0.338488 -0.140719 0.239653 0.254937 -0.367067 0.504967 0.258530 -0.118325 0.118457 0.327760 -0.576139 0.093990 0.074348 -0.131511 0.026639 -0.248533 0.479125 0.179400 0.198244 0.466931 0.408253 0.139372 0.335570 0.096126 0.050941 0.230162 -0.540461 0.123634 0.380964 0.054602 -0.200271 -0.081813 0.027850 -0.029350 
unos -0.371997 -0.227868 0.021221 -0.108982 0.181157 -0.330280 -0.018634 0.195640 0.283128 0.298327 0.118047 -0.257789 -0.524559 0.153943 -0.045138 0.247721 0.269526 0.205815 0.546583 0.325732 -0.285848 0.530519 0.047641 -0.497980 -0.285943 0.111964 -0.497490 0.241965 0.381827 0.032618 -0.498061 0.201914 0.166023 0.296913 -0.396613 0.654942 0.651021 0.396182 -0.245167 -0.135141 0.297400 0.213011 -0.541527 0.247960 0.158367 0.354718 -0.165405 0.135307 -0.182855 -0.088400 
dólares -0.233081 -0.627615 -0.277589 0.244102 0.135528 -0.452360 -0.015924 0.255972 0.190281 0.650720 -0.326573 0.023893 -0.503493 0.201703 -0.387307 0.574070 0.591518 0.146800 0.447952 0.372030 -0.356554 1.041760 -0.291177 -0.993082 -0.098058 0.368963 -0.921941 0.438758 0.137299 -0.002842 -0.515411 0.252855 0.395132 0.422619 -0.093239 0.581719 0.892682 0.706093 -0.183802 -0.360779 0.587737 0.203859 -0.468845 0.367071 -0.041693 0.498639 -0.268144 -0.134644 0.329115 -0.137333 
países -0.283228 -0.004706 0.374564 -0.035069 0.405161 -0.406962 -0.076411 -0.141220 -0.178633 0.419443 0.112237 0.011684 -0.385966 -0.096869 -0.085463 0.049061 0.163253 0.101682 0.466431 -0.145372 -0.040087 -0.037766 0.459996 -0.317017 -0.518360 -0.256902 -0.386690 0.044960 0.380331 -0.167240 -0.499056 0.461516 -0.076354 -0.030508 -0.099614 0.668167 0.450647 -0.079045 0.258887 0.112081 -0.359110 0.672083 -0.475277 0.333304 -0.052882 0.244760 -0.267990 -0.266061 -0.368588 -0.046035 
quien 0.118894 -0.276389 0.263583 0.330531 0.470680 0.330010 0.487935 -0.279490 -0.136775 0.108879 0.058446 -0.074527 -0.073979 -0.500126 -0.069772 0.567240 0.320486 -0.439104 0.649989 0.434202 -0.132996 -0.051722 0.092683 -0.078824 0.248324 0.171524 0.292459 0.093297 0.060615 -0.213090 0.252178 -0.426806 -0.206107 0.369250 0.097198 0.110640 0.135387 0.026286 0.424449 0.155614 -0.126785 0.293080 -0.224570 -0.110045 0.425683 0.308550 -0.013567 0.873634 -0.135414 0.031885 
personas -0.371300 -0.000096 0.184126 -0.277472 0.116286 -0.163001 0.244608 0.070727 -0.128476 0.289916 0.059013 -0.090232 -0.329539 -0.046106 -0.085905 0.135851 0.194689 0.181280 0.189807 0.247164 -0.199834 0.055640 0.270418 -0.453123 -0.186643 -0.001618 -0.526903 0.233320 0.240670 -0.203072 -0.200621 0.168027 0.089899 0.362428 -0.073866 0.721376 0.575010 -0.145896 0.172321 -0.093519 0.079971 0.484086 -0.635186 0.230933 -0.007180 0.143286 -0.187213 -0.187407 -0.198275 -0.203216 
empresa 0.074964 -0.333042 0.321441 0.212623 0.309833 0.053143 0.135979 -0.270701 -0.047129 -0.005692 -0.133125 -0.011213 -0.060775 -0.085411 -0.246874 0.238175 0.361342 -0.265062 0.446759 0.448752 -0.127942 0.540553 0.134729 -0.598879 0.093950 -0.122854 -0.238965 0.223369 -0.009518 -0.186422 -0.225631 0.238703 0.064345 0.288032 0.009055 0.436858 0.541741 0.217676 -0.061782 -0.188280 -0.034395 0.131647 -0.196033 0.209400 0.290662 0.095927 -0.015422 0.006971 -0.039170 0.028284 
día -0.304904 -0.345469 0.017646 0.136249 0.493201 -0.032534 0.289578 -0.286868 -0.291923 0.369777 0.725981 -0.137129 0.028498 0.057431 -0.122240 0.322902 0.362062 -0.154740 0.076894 0.466305 -0.053290 0.566786 0.157716 -0.180053 0.085564 0.383109 -0.534149 0.241048 0.072108 -0.036469 0.275316 -0.027548 0.318414 -0.087806 0.351280 0.561627 0.288931 0.152014 0.488036 0.010007 0.017236 0.285679 -0.478985 0.383303 0.225122 0.166222 -0.524571 0.041033 0.092796 0.173244 
primera -0.055331 -0.506285 0.367173 -0.285620 0.171252 0.000104 0.268256 -0.525187 -0.281618 -0.113411 0.615590 -0.279432 0.054003 0.351343 -0.287772 0.159586 0.330459 -0.129613 0.253632 0.507306 -0.155775 0.497831 0.276035 -0.499099 0.202696 0.214658 -0.629999 0.417550 -0.248374 -0.077524 0.142013 0.361154 -0.088909 -0.056829 0.277556 0.591628 0.593076 0.015989 -0.093751 -0.160602 0.278435 0.000705 -0.257799 0.399486 0.350984 0.213376 0.133310 0.187406 0.022157 0.423743 
días -0.578745 -0.343988 0.134700 -0.046176 0.379295 -0.077609 0.392636 -0.019320 0.006698 0.557823 0.735501 -0.314675 -0.014688 0.155763 0.280788 0.214796 0.124640 0.046743 0.582378 0.316445 -0.089246 0.205551 0.410784 -0.288363 -0.094802 0.045030 -0.655071 -0.035802 0.375572 -0.194788 -0.150098 0.200965 0.349878 0.186089 0.145632 0.841277 0.475370 0.028614 -0.173106 0.207292 0.389560 0.457732 -0.849435 0.200860 0.089505 0.335907 -0.503853 0.100002 -0.025357 0.316900 
será -0.049593 -0.325172 0.133057 0.027322 0.431824 -0.240589 0.244383 -0.455557 -0.213267 0.118167 0.355763 -0.038964 -0.105793 -0.065630 -0.174356 0.220111 0.305054 -0.298931 0.266797 0.262363 -0.182663 0.653465 0.237405 -0.295568 0.039453 0.179634 -0.174822 0.258626 -0.044213 0.027294 0.022018 -0.177996 0.092783 0.088167 0.050899 0.276838 0.388078 0.173809 0.158455 -0.230492 -0.226989 -0.010784 -0.348953 0.203010 0.443394 0.130705 -0.014034 0.084809 -0.202078 -0.079882 
primer -0.364195 -0.339981 -0.347027 0.375777 0.473781 -0.234433 0.256201 0.082351 -0.098870 0.522862 0.284364 -0.189960 0.016517 0.033355 -0.063049 0.273239 0.590095 -0.330500 0.406332 0.379348 0.147433 0.516669 0.200443 -0.451530 0.266223 0.597363 -0.409567 0.373659 0.080983 0.148871 0.162722 -0.154401 0.251041 0.290926 -0.013961 0.296264 0.219444 0.612515 0.400816 0.089862 -0.090484 0.290343 -0.213674 0.211512 0.339656 0.311481 -0.129939 0.369117 0.227309 0.181065 
Real 0.080592 -0.588470 0.683106 0.330197 0.404296 -0.043339 0.549929 -0.129634 -0.637798 0.271224 1.160974 -0.440231 -0.266261 -0.326250 0.293689 0.457705 0.701257 -0.205912 -0.082876 0.146901 0.131475 0.242498 0.288904 -0.362720 0.223329 0.225115 -0.296897 0.818884 -0.354320 -0.075871 0.659423 0.287986 -0.091245 -0.072404 0.459956 -0.023787 -0.153673 -0.459586 0.958886 -0.468639 0.378479 0.376869 0.441160 0.500852 0.139104 0.508920 -0.293629 0.246266 0.243153 0.201865 
ministro 0.180357 -0.575999 0.059044 0.671096 0.449415 -0.369104 0.392716 0.097093 -0.119994 0.460665 0.140825 0.068367 0.117818 -0.250203 0.174827 0.427770 0.422018 -0.313202 0.729260 0.326733 0.090901 0.281807 0.255683 -0.295438 0.147774 0.262630 -0.100426 0.113985 0.284234 0.205155 0.136356 -0.376646 0.122908 0.371216 -0.091793 -0.309286 0.196755 0.342576 0.782744 0.078129 -0.097352 0.636276 -0.102236 -0.049900 0.392843 0.333311 0.078018 0.465129 0.353211 -0.012999 
junio -0.131112 -0.539293 -0.003230 0.397072 0.444590 -0.274536 0.302834 -0.226481 -0.438935 0.544388 0.600130 -0.170821 0.236811 0.053119 -0.253582 0.625891 0.210618 -0.208940 0.118454 0.641647 -0.024631 0.583519 0.196486 -0.235778 -0.220011 0.364054 -0.579574 -0.029778 0.355513 -0.149504 0.003754 0.154687 0.410895 -0.314577 0.267028 0.703856 0.276796 0.183577 0.189296 -0.033212 -0.086064 0.456687 -0.635005 0.580710 0.134010 0.167828 -0.661825 -0.065841 0.057908 0.369028 
sólo -0.439473 0.113426 0.038277 -0.144981 0.453474 0.188740 0.187565 -0.203171 -0.232901 0.261727 -0.048205 -0.345520 -0.520989 -0.185246 -0.004539 0.287983 0.471464 -0.113313 0.236272 0.285597 -0.164047 0.081693 0.175438 -0.371762 0.015362 -0.061569 -0.236727 0.210187 -0.099402 -0.238490 0.199409 0.155157 -0.205892 0.478855 0.074651 0.706490 0.346571 0.079440 0.281166 -0.193961 0.003310 0.042598 -0.559711 0.155872 0.247890 0.338097 -0.299725 0.244349 -0.295243 -0.194576 
explicó 0.211553 -0.510597 0.566936 0.351645 0.378124 0.088997 0.429582 -0.182766 -0.212883 0.187059 -0.079032 -0.258586 0.037467 -0.112023 -0.073647 -0.038894 0.305605 -0.467385 0.687792 0.491051 -0.092857 0.174487 0.259016 -0.085845 0.209532 -0.121307 -0.091717 0.289739 -0.200304 -0.254424 0.128978 -0.040296 -0.140001 0.197383 0.083560 0.206389 0.211906 -0.152938 0.323563 -0.171442 -0.170058 0.412493 -0.307932 0.160626 0.430772 0.124706 -0.009129 0.366961 -0.036226 0.005985 
todo -0.565028 -0.003917 0.069825 -0.203465 0.375191 0.129989 0.128322 -0.481153 -0.450848 0.291847 -0.030482 -0.089045 -0.295581 -0.201883 -0.474962 0.266242 0.358844 -0.042939 0.239163 0.426385 -0.137608 -0.012335 0.053487 -0.177660 0.077865 -0.119691 -0.056249 0.300018 -0.161539 0.032750 0.353750 0.136164 -0.280548 0.255933 0.373686 0.600339 0.319289 0.110605 0.639958 -0.150381 -0.375511 0.206778 -0.769195 0.031343 0.268428 0.229348 -0.255948 0.329471 -0.419714 -0.048926 
portavoz 0.214690 -0.604197 0.510899 0.684440 0.520554 0.027846 0.289732 -0.165803 -0.329345 0.162006 -0.007225 0.068763 0.153153 -0.328501 -0.006390 0.209729 0.189956 -0.438200 0.873093 0.394531 0.013653 0.192678 0.198555 -0.417614 0.341232 -0.031897 -0.170059 0.064365 -0.019554 -0.129054 0.160716 -0.107244 -0.045954 0.253861 0.145034 -0.065732 0.151780 -0.024726 0.640925 -0.009976 -0.362624 0.318498 -0.118193 0.037367 0.369587 0.303307 0.043522 0.410809 0.293736 0.306997 
fuentes 0.304808 -0.484683 0.947732 0.790768 0.079373 0.109933 0.088625 0.451637 -0.009590 0.134625 -0.124398 -0.212791 0.099880 0.070336 -0.380339 -0.332891 -0.132578 -0.188749 0.724390 0.703379 -0.083254 -0.065935 0.194340 -0.108818 0.189336 -0.361024 -0.389445 0.291386 -0.030028 -0.285772 -0.278804 0.456968 0.221548 0.266552 0.333482 0.636269 0.435499 -0.603004 0.602794 0.138150 -0.047964 0.842716 -0.254877 0.641035 0.290271 -0.112296 -0.336016 -0.046939 -0.025801 0.093222 
horas -0.070072 -0.231136 0.365275 0.287220 0.174049 -0.132978 0.332830 0.174052 -0.005856 0.156177 0.690390 -0.024183 -0.070183 -0.003976 -0.195454 0.333278 0.075022 0.040296 -0.020990 0.327226 -0.086471 0.285107 0.157192 -0.487865 0.157884 0.314841 -0.498367 0.347319 0.240458 -0.300461 -0.180761 0.168506 0.411032 0.259396 0.239861 0.585450 0.452706 -0.302208 0.208932 0.017970 0.170673 0.422255 -0.467623 0.457932 -0.015512 0.028924 -0.539051 -0.199756 -0.023231 0.011709 
cuatro -0.547822 -0.008741 0.180968 -0.166792 0.232156 -0.254023 0.196823 0.179369 0.298877 0.446597 0.120112 -0.080910 -0.356608 0.056338 0.214769 0.185111 0.220229 0.271337 0.322705 0.111598 -0.235876 0.324087 0.213282 -0.442833 -0.302604 0.078242 -0.695310 0.130091 0.310797 -0.139136 -0.411436 0.220688 0.274733 0.381242 -0.068251 0.717410 0.676971 -0.015895 0.034503 0.079356 0.432221 0.585610 -0.615565 0.115910 -0.002677 0.279325 -0.184338 -0.085916 -0.127120 -0.138047 
final -0.222431 -0.589477 0.487542 -0.074145 0.446015 0.031915 0.390797 -0.149782 -0.483105 0.206485 0.842304 -0.430599 -0.029148 -0.209036 -0.155908 0.548245 0.722995 -0.355087 0.013165 0.422527 -0.090853 0.509423 0.300307 -0.386547 0.267648 0.201170 -0.414807 0.445647 -0.407706 -0.205352 0.383417 0.425226 0.179919 -0.140527 0.449938 0.426047 0.200713 -0.138304 0.277234 -0.456101 0.111993 0.009474 -0.057735 0.572449 0.121281 0.421144 -0.335310 -0.246266 0.164019 0.390392 
mercado -0.274372 -0.098484 -0.107475 0.052322 0.457829 -0.023812 -0.035839 -0.148538 -0.095834 0.220569 -0.118657 0.102874 -0.395263 -0.021046 -0.158234 0.048392 0.533385 -0.167205 0.357989 0.090785 -0.201264 0.471131 -0.108970 -0.579764 0.122330 0.164424 -0.613177 0.375193 -0.207696 0.069354 0.049572 0.158195 0.047886 0.303256 0.260613 0.570934 0.477340 0.171562 0.506060 -0.114020 0.090898 0.084155 -0.286492 0.128044 0.146600 0.278836 -0.088614 -0.130839 0.121530 -0.425755 
situación -0.177505 -0.227956 0.542276 -0.229430 0.301713 -0.028884 0.320711 -0.532725 -0.279565 0.088569 0.222421 0.081034 -0.073198 -0.294335 -0.283307 0.168436 0.374585 -0.177210 0.368532 0.392508 -0.124885 0.092838 0.272655 -0.310317 0.075485 -0.309995 -0.091927 0.075834 -0.017546 -0.219249 0.064656 0.285727 -0.161980 -0.192487 0.232138 0.514738 0.280128 -0.112962 0.160949 -0.059968 -0.487950 0.231973 -0.608281 0.225328 0.207514 0.116823 -0.161474 -0.011862 -0.425346 -0.016187 
Juan 0.323251 -0.511819 0.677699 0.430847 0.284759 -0.151354 0.588570 -0.026720 -0.250679 0.142013 0.599360 0.230703 0.186544 -0.327067 0.008858 0.374711 0.396109 -0.316448 0.453931 0.280115 0.021448 0.234816 0.260885 -0.272864 0.073532 0.312105 -0.090708 0.396627 0.129634 0.021875 0.116283 -0.203880 -0.005281 0.064949 -0.022229 -0.477827 0.151571 -0.098585 0.818231 0.081308 -0.027876 0.779946 0.249221 -0.026171 0.232998 0.227804 0.245146 0.420377 0.217878 0.016157 
' -0.551031 0.212817 0.073263 0.323333 0.735656 -0.033801 0.330946 0.022736 -0.131759 0.328160 0.047499 0.153291 -0.800512 0.168265 -0.369958 0.119257 0.693804 -0.164934 0.024381 0.070426 -0.176632 0.432810 0.029495 -0.594456 0.300262 0.146134 -0.533388 0.375510 -0.433126 -0.027858 0.514369 0.319866 0.103499 0.724391 0.035738 -0.095078 0.347731 0.252639 0.998819 0.124464 0.031830 -0.038900 0.154464 0.039737 0.017037 0.384797 0.428206 -0.112020 -0.177126 0.108435 
trabajo -0.275214 -0.096345 0.114664 -0.149754 0.297151 -0.070487 0.214362 -0.150501 -0.262668 0.170430 -0.014142 0.006420 -0.264615 -0.165508 -0.128294 0.328856 0.229392 -0.055298 0.278161 0.091330 -0.183197 0.133329 0.117122 -0.457637 -0.212745 -0.014113 -0.293673 0.175202 -0.004952 -0.128191 -0.067890 0.145389 -0.102836 0.200987 0.153511 0.590985 0.317430 -0.188535 0.397920 -0.059758 -0.044362 0.359368 -0.282458 0.132515 0.103359 0.296503 -0.128348 0.145773 -0.189126 -0.117350 
reunión 0.264349 -0.706231 0.657532 0.145773 0.532689 -0.182035 0.468291 -0.347574 -0.192149 0.082003 0.493733 -0.030499 0.216423 -0.068219 -0.288036 0.272163 0.298203 -0.421607 0.498249 0.386995 -0.049298 0.396874 0.419339 -0.389191 0.075503 0.070335 -0.230235 0.139938 0.107623 -0.397612 -0.117438 0.068592 0.074247 -0.336051 0.078927 0.320887 0.202871 -0.043237 -0.024041 -0.058825 -0.263824 0.342704 -0.393060 0.240496 0.222616 -0.028949 -0.144577 -0.037666 0.075141 0.413936 
hace -0.600284 -0.036775 0.188027 -0.430155 0.501004 0.097753 0.314693 -0.153644 0.123149 0.229593 0.474004 -0.162258 -0.376010 -0.123953 0.472888 0.330470 0.131788 0.056467 0.507087 0.288982 -0.226829 0.234223 0.385757 -0.359267 -0.128972 0.090527 -0.573678 -0.006739 0.111547 -0.207922 -0.043080 -0.099895 0.092612 0.419361 -0.132559 0.786092 0.307516 0.107498 0.022520 -0.046933 0.398237 0.130037 -0.726109 -0.000213 0.251518 0.380699 -0.254465 0.405406 0.046812 0.067795 
prensa 0.469845 -0.921934 0.728063 0.097499 0.450893 -0.052973 0.564745 -0.477418 -0.180561 0.096370 -0.051407 -0.331389 0.282041 -0.155470 -0.272265 -0.012623 0.415303 -0.488597 0.765185 0.456852 -0.324637 0.227866 0.382335 -0.104941 0.330917 0.011043 -0.420788 0.352744 -0.404874 -0.416001 0.142973 0.037069 -0.012639 -0.214088 0.392337 0.309888 0.243584 -0.284609 -0.006654 -0.234895 -0.147786 0.380800 -0.449301 0.222331 0.588477 -0.005576 0.138819 0.396239 -0.034354 0.525492 
así -0.381622 0.198089 0.115480 -0.074924 0.313687 -0.227220 0.489547 -0.156786 -0.233598 0.240567 -0.146318 0.198337 -0.220964 -0.225596 -0.010549 0.304511 0.392899 -0.333868 0.450976 0.008302 -0.058442 0.091573 0.291918 -0.349146 -0.258304 -0.035569 0.059245 0.228852 0.186473 0.133312 -0.385412 -0.197029 -0.021168 0.131470 -0.117910 0.497011 0.453182 -0.227201 0.441385 0.267436 -0.587393 0.392045 -0.358530 -0.056937 0.262308 0.171712 0.065254 -0.044798 -0.348363 -0.134881 
nuevo -0.143361 -0.270327 0.000294 0.214103 0.390988 -0.162100 0.343294 -0.118134 -0.273171 0.233658 0.079406 0.011937 -0.098061 -0.239692 0.030445 0.369655 0.409987 -0.410554 0.439993 0.280343 -0.119677 0.458392 0.096342 -0.350022 0.186725 0.225434 -0.259828 0.284977 -0.066870 0.034852 0.067721 -0.055075 0.133760 0.169944 0.136540 0.158014 0.189865 0.281528 0.489324 -0.026345 -0.183233 0.164601 -0.138519 0.101693 0.342405 0.300376 -0.061092 0.223966 0.113165 0.012948 
uno -0.486043 -0.127288 0.287157 -0.094983 0.355981 -0.055958 0.209302 -0.130193 -0.337241 0.508357 0.070121 -0.277584 -0.331781 -0.206854 0.324459 0.157196 0.261242 0.102092 0.616665 0.018359 -0.046505 0.184249 0.270816 -0.293876 -0.173143 -0.213424 -0.385076 -0.040912 0.214580 -0.140019 -0.113325 0.345821 -0.124332 0.312766 -0.130673 0.545266 0.370060 0.037566 0.234034 0.033724 0.119844 0.353608 -0.306382 0.010520 0.061368 0.487641 -0.065385 0.256558 -0.019208 0.151944 
acuerdo -0.049345 -0.391978 0.038002 0.289053 0.605048 -0.142628 0.006889 -0.262388 -0.260438 0.120792 -0.046387 -0.091261 -0.193729 -0.119696 -0.310245 0.254156 0.209217 -0.403386 0.456996 0.108258 -0.405110 0.232974 0.047602 -0.311420 -0.020377 -0.092192 -0.266812 0.216025 0.103514 -0.284910 -0.232888 0.069699 -0.021482 0.016797 0.237513 0.655577 0.341449 0.122707 0.326802 -0.095726 -0.407464 0.257964 -0.416673 0.257342 0.246832 0.092513 -0.422669 -0.081700 -0.208374 0.106376 
señaló 0.001701 -0.227342 0.378031 0.141892 0.342413 0.000226 0.398546 -0.298588 -0.468492 0.274320 0.178425 -0.358356 -0.124260 -0.200166 0.079280 0.068534 0.346530 -0.239953 0.314170 0.291768 0.019064 0.060442 0.225361 -0.117173 0.120579 -0.084440 0.030205 0.308500 -0.152052 -0.167984 0.253303 -0.010345 -0.221327 0.282626 0.080861 0.258099 0.131626 -0.055938 0.562116 -0.213874 -0.267441 0.270622 -0.329174 0.240085 0.443008 0.281764 -0.065159 0.377086 -0.200725 -0.006867 
informó 0.332963 -0.759060 0.384354 0.635007 0.374384 -0.121936 0.180490 0.264811 0.038019 0.106115 -0.057120 -0.110959 0.157897 0.037832 -0.046220 -0.065459 0.162683 -0.559606 1.011468 0.500879 -0.167848 0.600905 0.219797 -0.353779 0.318822 -0.007207 -0.607431 0.307407 0.011696 -0.231445 -0.336606 0.257937 0.264175 0.219255 -0.021325 0.295204 0.371423 0.135721 0.185125 -0.045685 0.056865 0.501620 -0.176069 0.271999 0.396460 -0.090605 -0.062945 0.066137 0.365840 0.159147 
capital 0.004827 -0.219889 0.300514 0.034035 0.288077 -0.143552 0.111019 -0.227457 -0.049989 0.005991 0.234626 0.009571 -0.151402 -0.076119 -0.246426 0.262776 0.430975 -0.063165 0.252615 0.295862 -0.260333 0.579930 0.203379 -0.550004 0.153127 0.107537 -0.639294 0.306198 0.061621 -0.101827 -0.229890 0.314403 0.196930 -0.066322 0.152921 0.601854 0.608921 0.196077 -0.037599 -0.176251 0.016714 0.116157 -0.197681 0.407790 0.101467 0.093725 -0.142239 -0.319747 0.022919 0.039033 
están -0.293408 0.130743 0.183843 -0.115692 0.285026 -0.064612 0.214243 -0.175325 -0.229321 0.363949 0.091608 -0.184176 -0.450368 -0.246700 -0.123493 0.156346 0.247603 0.076821 0.297841 0.084268 -0.008062 -0.013208 0.239651 -0.384849 -0.176469 -0.058722 -0.238857 0.261159 0.126198 -0.313013 -0.176067 0.179875 -0.128338 0.113758 -0.090873 0.715140 0.309059 0.048425 0.210086 -0.237473 -0.286047 0.273099 -0.699131 0.297328 0.172380 0.139784 -0.328361 -0.003233 -0.441718 -0.239058 
mayor -0.274115 0.003048 0.084427 -0.301284 0.309245 0.027214 0.148683 -0.448268 -0.232461 0.092250 0.049649 0.072945 -0.366491 -0.138482 -0.219006 0.181958 0.451938 0.150657 0.206704 0.155687 -0.264770 0.246126 0.178351 -0.497561 0.077274 0.006706 -0.527310 0.233051 0.000875 -0.244132 -0.136437 0.162547 -0.135830 0.407920 0.174956 0.563017 0.655436 0.309037 0.182513 -0.225787 -0.032578 0.044689 -0.475906 0.068146 0.138385 0.225704 -0.071061 -0.176215 -0.182045 -0.156255 
proyecto 0.094226 -0.322396 0.050342 0.040799 0.340121 -0.157711 0.201732 -0.263683 -0.320376 -0.005103 -0.225688 0.079101 -0.073965 -0.184884 -0.147786 0.319945 0.286334 -0.419414 0.490384 0.283482 -0.277169 0.194026 -0.097141 -0.466864 0.014851 0.001317 -0.266659 0.183843 0.049228 -0.008436 -0.144293 0.060303 -0.197580 0.054744 0.210497 0.588474 0.373652 0.102082 0.416882 -0.098072 -0.286249 0.250489 -0.349642 0.064252 0.232833 0.246563 -0.192458 0.105346 -0.023772 -0.113607 
puede -0.326358 0.025203 0.156258 -0.289920 0.352309 0.385267 0.329822 -0.302940 -0.421046 0.026627 -0.037342 -0.199321 -0.459011 -0.326932 -0.223650 0.304335 0.426476 -0.263003 0.326791 0.426892 -0.192638 0.038234 0.049621 -0.273855 0.027690 -0.198070 0.178513 0.139140 -0.192851 -0.138253 0.289555 -0.014778 -0.342244 0.303679 0.137982 0.618730 0.203644 -0.187956 0.463277 -0.129531 -0.250559 0.031238 -0.611443 0.130052 0.418488 0.326811 -0.132448 0.502999 -0.422429 -0.351719 
mayo -0.204172 -0.541339 0.072456 0.486601 0.495955 -0.180566 0.169726 -0.121469 -0.253560 0.506594 0.431323 -0.285054 0.048736 0.108784 -0.170764 0.489665 0.294583 -0.096280 0.098190 0.559253 -0.024720 0.668679 0.111644 -0.396285 -0.029268 0.302454 -0.715341 0.209074 0.165367 -0.042784 0.116178 0.242451 0.423635 -0.041717 0.253717 0.582256 0.385907 0.184215 0.344363 -0.148554 0.112065 0.337966 -0.359947 0.517108 0.130081 0.148749 -0.511396 -0.136947 0.253620 0.266804 
forma 0.000636 -0.140511 0.239129 -0.229558 0.251929 0.154750 0.328051 -0.412437 -0.430894 -0.004342 0.077928 0.025492 -0.207822 -0.288825 -0.013755 0.293112 0.338713 0.017452 0.320020 0.205420 -0.252872 0.228948 0.278705 -0.321372 0.073699 -0.145220 -0.256995 0.073888 0.045023 -0.345539 -0.056547 0.145253 -0.194132 0.227070 0.115742 0.568558 0.393630 -0.034824 0.237385 -0.227735 -0.137503 0.215050 -0.402306 0.079923 0.261672 0.091695 -0.056042 -0.048139 -0.148742 -0.148325 
mismo -0.632693 -0.209087 -0.186953 0.223973 0.600540 0.121735 0.062173 -0.201293 -0.273794 0.389830 0.359048 -0.262185 -0.158129 0.096042 -0.182049 0.237153 0.565559 -0.124196 0.299903 0.429296 -0.107137 0.369052 0.032428 -0.388762 0.353029 0.200772 -0.485535 0.270371 -0.046146 -0.000005 0.458554 0.105324 0.053374 0.345383 0.294530 0.583652 0.373581 0.391089 0.516112 -0.194447 -0.088644 0.009574 -0.714456 0.240022 0.266472 0.308432 -0.396681 0.066112 0.052293 0.043597 
San 0.336823 -0.666747 0.626141 0.484892 0.288016 -0.178807 0.333056 0.159928 -0.238003 0.194823 0.436826 0.012869 0.128176 -0.063580 -0.059891 0.438115 0.303596 -0.221510 0.303270 0.295085 -0.050484 0.413792 0.365693 -0.527332 -0.076197 0.315719 -0.460294 0.417232 0.086646 -0.070547 0.000306 0.226625 0.226669 -0.065963 0.076213 -0.189528 0.130501 -0.229710 0.487499 -0.019530 0.289353 0.806485 0.348514 0.309425 0.081887 0.108402 0.191431 0.285867 0.213710 0.252521 
hay -0.309791 0.077279 0.353933 -0.196017 0.351585 0.051388 0.143516 -0.322536 -0.369977 0.331131 -0.044494 -0.350846 -0.635429 -0.281542 -0.203665 0.086582 0.377659 -0.082290 0.266831 0.217508 -0.035379 -0.008560 0.280275 -0.264304 -0.152927 -0.171985 0.076694 0.211656 -0.171893 -0.110458 0.225327 0.026704 -0.318282 0.311014 0.020311 0.568824 0.235794 -0.079530 0.439765 -0.210925 -0.399445 0.131256 -0.734051 0.215108 0.226450 0.397413 -0.232690 0.350722 -0.476833 -0.390693 
estos -0.404624 -0.074490 0.354853 -0.081114 0.153096 0.104379 0.084002 0.092513 -0.233115 0.460090 -0.069612 -0.413257 -0.281233 0.025318 -0.137389 -0.033720 0.253402 0.263816 0.466571 0.298949 -0.179108 -0.101188 0.286721 -0.167773 -0.293226 -0.112809 -0.415850 0.102803 0.001721 -0.160442 -0.037562 0.462576 -0.236802 0.168162 0.065761 0.652289 0.437316 0.039882 0.270582 -0.073708 0.130490 0.589710 -0.604266 0.280142 0.036776 0.245052 -0.174260 0.253685 -0.387516 -0.077390 
empresas -0.224471 0.306681 0.169644 0.021550 0.065510 -0.337653 -0.006656 0.059012 -0.085739 0.230815 -0.150450 0.260451 -0.594571 -0.355286 -0.220847 0.047697 0.356488 0.403969 0.015736 -0.091535 -0.224576 0.062522 0.171525 -0.550626 -0.115763 -0.120274 -0.574696 0.294976 0.292476 -0.243602 -0.332542 0.274009 0.093293 0.509418 0.017178 0.622897 0.659435 -0.037559 0.520764 -0.164717 -0.277890 0.486604 -0.488329 0.318961 -0.021490 0.122649 -0.325281 -0.526719 -0.368805 -0.594668 
aseguró 0.060657 -0.322620 0.378002 0.184938 0.307611 0.060794 0.439384 -0.129866 -0.291472 0.118512 0.114389 -0.206864 -0.177605 -0.222827 0.067041 -0.108242 0.303026 -0.418809 0.729799 0.329192 0.016467 0.265082 0.223796 -0.046985 0.223415 -0.187077 0.047434 0.391502 -0.123459 -0.181434 0.245770 -0.086217 -0.157101 0.307870 0.015084 0.167166 0.072314 -0.006768 0.520103 -0.171595 -0.356012 0.285594 -0.428088 0.052433 0.489204 0.204905 -0.106717 0.395611 -0.088257 -0.086202 
antes -0.300091 -0.259429 0.077766 -0.197036 0.346326 -0.041328 0.204278 -0.247432 -0.116734 0.183019 0.350767 -0.140583 -0.062442 -0.092044 -0.055222 0.463966 0.346344 -0.084354 0.204271 0.428840 -0.230358 0.375938 0.173258 -0.183151 -0.099806 0.154564 -0.354382 -0.015242 0.135386 -0.060001 0.092344 0.060620 0.238717 0.017529 0.149739 0.807566 0.327906 0.026914 0.032067 -0.121939 -0.060716 0.207826 -0.692788 0.332030 0.369624 0.261879 -0.311843 0.169554 -0.223850 0.036699 
director 0.294989 -0.515073 0.375308 0.743613 0.457435 -0.194811 0.456615 0.022246 -0.179142 0.202531 0.304602 0.232848 0.348415 -0.209698 0.315588 0.472398 0.298811 -0.385958 0.627241 0.462383 0.064711 0.460522 0.129551 -0.367167 0.132691 0.304463 -0.261787 0.176664 0.206658 0.124207 0.071496 -0.170464 0.048349 0.343310 0.035629 -0.215632 0.444452 0.116560 0.627319 0.050608 -0.093361 0.513714 0.156042 0.103048 0.409649 0.219081 0.148365 0.225936 0.455559 0.148219 
vez -0.117391 -0.313980 0.266490 -0.480004 0.378981 0.024476 0.258250 -0.640933 -0.382755 0.057894 0.426740 -0.098323 -0.240615 0.055680 -0.297145 -0.005309 0.263609 -0.210414 0.264627 0.147975 -0.198768 0.276300 0.166729 -0.438772 0.089664 0.027099 -0.566429 0.268214 -0.218807 -0.260115 -0.026094 0.113248 -0.119523 0.243094 0.090503 0.740862 0.352892 -0.137888 0.033178 -0.427464 0.124674 -0.028650 -0.359556 0.197161 0.254896 0.243221 0.110490 0.252530 -0.274183 0.155387 
caso -0.167921 -0.176676 0.330964 -0.029294 0.391571 -0.022099 0.223662 -0.264675 -0.498511 0.231384 0.052770 -0.204467 -0.182433 -0.105878 -0.332632 0.166353 0.230436 -0.068998 0.293304 0.214047 -0.084804 -0.069823 0.107516 -0.414312 -0.134180 0.080812 -0.278641 0.222742 -0.246334 -0.034292 0.165500 0.114876 -0.330339 -0.084449 0.350445 0.703940 0.261792 -0.256989 0.477538 -0.168302 -0.176649 0.269060 -0.449751 0.214587 0.151464 0.358810 -0.300065 0.238970 -0.242238 -0.026600 
Nacional 0.496446 -0.540455 0.718247 0.577683 0.375321 -0.383872 0.300264 -0.172604 0.082669 -0.090806 0.270596 0.165030 0.176335 -0.237616 -0.153312 0.374807 0.128535 -0.499109 0.629984 0.405822 -0.211038 0.405955 0.228601 -0.315348 0.150964 0.117531 -0.111643 0.258667 0.263261 0.024719 -0.512115 0.061967 0.303434 -0.025126 -0.065510 -0.087449 0.492224 -0.052690 0.118964 0.200984 -0.236902 0.504297 0.177155 0.186795 0.354651 -0.064841 0.174211 0.051015 0.110435 0.154039 
frente -0.235894 -0.354396 -0.112122 0.135169 0.396195 0.089839 0.155931 0.112053 0.055176 0.205124 0.457780 0.114246 -0.321909 -0.146366 -0.161754 0.460335 0.548827 -0.273905 0.453992 0.152071 -0.388882 0.413478 -0.123514 -0.342186 0.444050 0.212486 -0.349191 0.397983 0.075639 -0.079307 0.030683 0.101713 0.354727 0.383207 0.175609 0.299541 0.410916 0.218412 0.400333 -0.028837 0.276250 0.008287 -0.220723 0.046558 0.228283 0.376801 -0.207516 -0.114279 0.243724 0.029372 
segunda -0.040781 -0.242109 0.308859 -0.230398 0.305874 0.128075 0.360566 -0.591794 -0.232018 -0.132716 0.401792 -0.118706 -0.019398 0.001295 -0.235620 0.349763 0.338919 -0.187778 0.203225 0.584286 -0.306647 0.411877 0.158097 -0.360876 0.181958 0.045405 -0.346184 0.218319 -0.104960 -0.104890 0.022715 0.230614 0.100774 -0.140663 0.270456 0.613756 0.507094 0.084764 -0.065418 -0.149465 -0.067913 -0.011519 -0.492102 0.304492 0.341634 0.100881 -0.067521 0.013663 -0.182791 0.147813 
puntos -0.554019 0.078188 -0.294284 0.036584 0.357603 0.124879 0.296619 -0.102386 -0.076055 0.540816 0.292891 0.352520 -0.435253 0.029243 -0.212827 0.256262 0.496720 0.279564 0.099283 0.017203 -0.334661 0.618542 -0.088735 -0.597265 0.321530 0.423434 -0.822689 0.594137 -0.168156 -0.006743 -0.055261 0.134407 0.407703 0.530338 0.441934 0.293948 0.773694 0.381584 0.477732 0.107529 0.525106 0.226234 -0.185087 0.025106 0.163600 0.186929 0.025918 -0.352708 0.181725 -0.293825 
tanto -0.466756 0.267728 -0.005507 0.085885 0.253787 -0.062961 0.433324 -0.173020 -0.324069 0.343459 0.117335 0.141334 -0.273433 -0.161945 -0.163048 0.246379 0.398387 -0.073852 0.265178 0.051240 -0.022936 0.079791 0.096877 -0.311761 0.020326 0.141963 -0.167813 0.369793 0.072301 0.018129 -0.011436 -0.221050 0.004158 0.361269 0.178050 0.454144 0.441546 -0.061005 0.603788 0.202091 -0.317940 0.284391 -0.334201 0.077749 0.196885 0.290488 -0.119990 -0.038387 -0.228931 -0.122213 
Consejo 0.316884 -0.558137 0.470153 0.639596 0.535843 -0.408853 0.285610 -0.263244 -0.012243 0.004178 0.241058 0.261725 0.259734 -0.211287 0.030255 0.270726 0.313407 -0.566969 0.695663 0.276016 -0.119814 0.334820 0.174903 -0.282160 0.176983 0.002294 -0.167417 -0.014699 0.439118 -0.045684 -0.170843 -0.116544 0.046870 0.088820 0.123277 -0.047861 0.452384 -0.083615 0.383040 0.133547 -0.397676 0.441563 -0.052113 0.093952 0.255041 0.229580 -0.002591 -0.108028 0.090464 0.035806 
mes -0.336589 -0.560945 -0.269914 0.396130 0.510792 -0.072009 0.167351 -0.142516 -0.289434 0.560133 0.337448 -0.241354 0.037050 0.191012 -0.233900 0.474790 0.441369 -0.207743 0.286862 0.596681 -0.088109 0.676838 0.033493 -0.452808 0.130172 0.391413 -0.725448 0.246389 0.186982 0.000318 0.147376 0.038197 0.373888 0.038415 0.309403 0.750098 0.449947 0.476616 0.322980 -0.186878 -0.054599 0.158956 -0.626218 0.380925 0.283910 0.262986 -0.593587 -0.070451 0.166445 0.260864 
ayer -0.165328 -0.316353 0.027529 0.220206 0.383314 -0.032261 0.403373 -0.100446 -0.003716 0.321723 0.419723 0.102435 -0.023856 0.069493 -0.089069 0.273919 0.366453 -0.198729 0.360151 0.280323 -0.304965 0.418821 0.084114 -0.253723 0.343528 0.351174 -0.501798 0.421022 0.006300 -0.084685 -0.033703 -0.135286 0.401177 0.263326 0.200895 0.224167 0.529867 0.116093 0.252280 0.094131 0.229706 0.225841 -0.187004 0.141863 0.335924 0.125896 -0.019421 0.004193 0.153598 0.167745 
política -0.143030 -0.101027 0.395377 -0.249921 0.391877 0.038022 0.278599 -0.552711 -0.220280 -0.057031 0.179777 0.079152 -0.289364 -0.329528 -0.420415 0.191658 0.427057 -0.220031 0.327633 0.263148 -0.197696 0.123439 0.190871 -0.318858 0.081260 -0.196496 -0.098120 0.158151 -0.058559 -0.219114 0.085931 0.167315 -0.146350 -0.040343 0.179133 0.373596 0.268388 0.019900 0.269973 -0.030277 -0.540530 0.117198 -0.401718 0.119818 0.239172 0.179666 0.012829 0.139558 -0.392775 0.072810 
semana 0.098192 -0.452893 0.461492 -0.078294 0.396988 0.101645 0.277978 -0.408134 -0.154153 -0.061829 0.421944 -0.188579 -0.052266 -0.030866 -0.344398 0.359830 0.068080 -0.266029 0.317366 0.565481 -0.130771 0.380641 0.237782 -0.442094 -0.058352 -0.025393 -0.244753 0.035774 0.027043 -0.209255 -0.074378 0.295018 -0.036886 -0.214436 0.106016 0.743628 0.386527 -0.185302 -0.111485 -0.185679 -0.067005 0.205017 -0.420251 0.333431 0.242309 0.044064 -0.246531 0.158781 -0.245759 0.310454 
además -0.190215 -0.163120 0.229742 -0.085188 0.308477 -0.115506 0.133418 -0.108558 -0.107114 0.300699 0.018224 -0.083125 -0.331005 -0.152021 0.083031 0.224618 0.254203 -0.015818 0.401383 0.154785 -0.195044 0.240183 0.232518 -0.324202 -0.138880 -0.078644 -0.292198 0.088970 0.093627 -0.065229 -0.100726 0.116178 -0.009378 0.288037 -0.108890 0.345261 0.389671 0.055718 0.216362 -0.132619 0.012571 0.304150 -0.367663 0.126545 0.204427 0.257529 0.042296 0.178886 -0.191503 -0.091485 
Carlos 0.552741 -0.511652 0.710561 0.426966 0.301514 -0.113338 0.647914 -0.045644 -0.203185 -0.014487 0.530532 0.201473 0.184181 -0.423314 0.152980 0.343711 0.295476 -0.377033 0.668059 0.292355 -0.013767 0.221893 0.358269 -0.258736 0.147899 0.273253 -0.018691 0.301928 0.189790 -0.035120 -0.010290 -0.222476 -0.052039 0.076843 -0.066614 -0.430375 0.107325 -0.078109 0.697400 0.156286 -0.177849 0.743537 0.178608 -0.054268 0.353844 0.143939 0.315883 0.506844 0.172511 0.021787 
otras -0.303638 0.223719 0.371263 -0.084250 0.191051 -0.178597 0.194324 0.078855 -0.157375 0.411009 0.072602 -0.008287 -0.498143 -0.248098 -0.113787 0.316003 0.341502 0.185332 0.131156 0.049586 -0.077105 -0.129775 0.408665 -0.305259 -0.239176 0.003315 -0.136648 0.150851 0.193154 -0.204840 -0.215773 0.193499 0.053703 0.326586 -0.052504 0.617923 0.443070 -0.127003 0.358609 0.124686 -0.183463 0.587056 -0.616985 0.256076 -0.013714 0.189197 -0.357680 -0.314397 -0.287725 -0.343676 
ciudad -0.088524 -0.252432 0.492203 0.023196 0.305642 -0.009096 0.350491 -0.264314 -0.138813 0.128963 0.274659 -0.042368 -0.042777 -0.188222 -0.057117 0.328606 0.305869 -0.046213 0.314048 0.491703 -0.045152 0.427319 0.305305 -0.356130 0.053467 0.006843 -0.396717 0.170793 0.036855 -0.199748 -0.058988 0.312196 0.100717 -0.087151 0.146818 0.323470 0.401014 -0.006369 0.074588 -0.048601 -0.065925 0.310094 -0.153589 0.309697 0.105521 0.095931 -0.082669 -0.024776 0.054202 0.221189 
sector -0.093913 -0.099879 0.071064 0.257473 0.487880 -0.125399 0.007428 -0.197665 -0.087438 0.211277 0.110530 0.097547 -0.222291 -0.048151 -0.292532 0.095206 0.320686 -0.094913 0.352751 0.103224 -0.070088 0.157870 0.008657 -0.520569 0.032777 0.093995 -0.420160 0.238998 0.038524 0.074629 -0.049574 0.019838 -0.075257 0.060547 0.183636 0.367134 0.399980 0.101632 0.529451 0.033966 -0.124404 0.316902 -0.207885 0.161818 0.101932 0.198903 -0.082810 0.018062 -0.036314 -0.167728 
cada -0.482870 -0.161933 0.090326 -0.266912 0.228868 -0.179908 0.058103 -0.283308 -0.155847 0.307220 -0.019099 -0.351415 -0.278001 -0.004720 -0.162629 0.252210 0.268142 0.130212 0.298527 0.343454 -0.195547 0.271990 0.194930 -0.427446 -0.103926 0.120559 -0.527980 0.198267 0.113400 -0.128005 -0.190663 0.316785 -0.065182 0.304112 -0.099492 0.682609 0.615509 0.310353 -0.118521 -0.285143 -0.020096 0.145261 -0.667841 0.295802 0.171843 0.264515 -0.060620 0.149442 -0.338406 -0.033518 
DE 0.659964 -0.264001 0.903917 0.216046 -0.056647 -0.136003 0.157194 0.279776 -0.174423 0.019283 0.681632 0.246455 -0.932392 -0.276713 -0.493865 0.377972 0.039399 0.161806 0.233062 0.165090 0.012649 0.178090 0.134872 -0.821930 -0.268861 0.207623 -0.146754 0.682569 -0.010362 0.205837 -0.104062 0.301409 -0.261606 0.217810 -0.365304 -0.521929 0.333953 -0.527929 1.052839 0.191075 0.686129 1.167727 0.729749 0.502793 0.097618 0.162388 1.093738 1.049155 -0.145725 -0.508492 
esa -0.177475 -0.287440 0.233230 0.059923 0.250282 -0.002694 0.178446 -0.364973 -0.330374 0.213789 0.022497 -0.315366 -0.248784 -0.026054 -0.151874 0.115941 0.423235 -0.040343 0.443852 0.303346 -0.307934 0.153630 0.101841 -0.242415 0.239833 -0.179160 -0.124808 0.310909 -0.029978 -0.085195 0.117435 0.203320 -0.172075 0.302661 0.108007 0.378556 0.487196 0.123845 0.145364 -0.278648 -0.131987 0.043378 -0.393510 0.189145 0.397687 0.299696 0.017094 0.218580 -0.336811 0.032346 
EFECOM 0.366857 -0.536700 0.446046 0.510561 0.070229 -0.013038 -0.043325 0.338640 -0.490703 0.275132 0.645877 -0.274933 -0.467813 0.178038 -0.547707 -0.033141 0.168317 0.140740 0.157584 0.345938 0.222397 0.412844 0.261907 -0.734663 -0.170494 0.279056 -0.692360 0.693404 -0.275904 -0.143178 0.249762 0.560387 -0.005233 0.240017 0.101226 0.145440 0.098374 -0.280710 0.823560 -0.230319 0.591553 0.771078 0.486483 0.779021 0.162323 0.189881 0.187338 0.486989 0.169615 0.164496 
ex 0.046034 -0.246164 0.282692 0.415651 0.393045 -0.183532 0.592376 -0.087032 -0.193597 0.154193 0.584172 0.157061 0.041970 -0.314215 0.232524 0.308612 0.362618 -0.311183 0.537318 0.258932 0.107508 0.261925 0.281097 -0.274675 0.211231 0.268374 -0.126317 0.296797 0.156576 -0.002133 0.111858 -0.317182 -0.047962 0.337719 -0.013207 -0.263093 0.138518 0.094332 0.689967 0.212689 -0.084933 0.514823 0.126571 -0.050963 0.300299 0.344162 0.100917 0.387471 0.366944 0.066180 
zona -0.156368 -0.215773 0.524573 -0.165899 0.443145 -0.124203 0.304158 -0.359469 0.028129 0.131778 0.470321 0.159032 -0.175012 -0.178210 -0.032713 0.242748 0.217433 -0.000341 0.383187 0.322426 -0.162607 0.336043 0.325759 -0.372197 0.025693 -0.003992 -0.234982 0.186977 0.085456 -0.040179 -0.237652 0.122272 0.107171 -0.040302 0.062402 0.345930 0.389550 0.019004 0.011683 0.111677 -0.166912 0.197271 -0.323283 0.033044 0.134675 0.147892 -0.000498 -0.126258 -0.022057 -0.035120 
Ayuntamiento 0.314347 -0.546761 0.503169 0.461802 0.448644 -0.203208 0.245789 -0.227266 -0.151323 0.112688 0.271357 0.028626 0.176165 -0.113666 0.013440 0.278066 0.311847 -0.297374 0.421437 0.273545 -0.057642 0.243798 0.244273 -0.308868 0.067029 0.176972 -0.314988 0.236675 0.023019 -0.045813 -0.045242 0.115507 0.084100 0.072054 0.277127 0.226609 0.295001 -0.143156 0.476144 -0.075381 -0.056709 0.499709 0.057136 0.145069 0.227795 0.224487 -0.230045 -0.046844 0.130042 0.200502 
cinco -0.477962 -0.149875 0.200317 0.050683 0.197679 -0.273703 0.172459 0.297839 0.203074 0.456798 0.319004 -0.214380 -0.248710 0.085172 0.148915 0.293566 0.200990 0.283010 0.401760 0.197325 -0.154021 0.273110 0.157054 -0.393642 -0.193982 0.101817 -0.578516 0.171410 0.382678 -0.145208 -0.403562 0.360620 0.248744 0.376691 -0.153698 0.662628 0.556845 0.146060 0.060366 -0.041720 0.422825 0.537393 -0.519411 0.223001 0.045492 0.338578 -0.318146 -0.026135 -0.109461 -0.009840 
haber -0.444424 0.003678 0.195863 -0.282919 0.317162 0.541685 0.359264 -0.069567 -0.169610 0.087312 0.265841 -0.086126 -0.202225 -0.242033 0.141343 0.332565 0.147646 -0.208711 0.344685 0.459081 -0.240194 0.018993 0.261779 -0.210383 0.223311 0.010974 -0.040301 0.142749 -0.021747 -0.252085 0.268958 -0.011421 -0.095245 0.670314 0.199933 0.640568 0.446331 -0.238794 0.330303 0.165722 0.158622 0.240972 -0.633743 -0.006508 0.216132 0.192365 -0.136169 0.315661 -0.137081 -0.130200 
estas -0.078587 -0.067001 0.346407 -0.026633 0.113270 -0.053099 0.106099 -0.020259 -0.227863 0.248750 -0.026614 -0.051393 -0.306392 -0.104186 -0.168996 0.103913 0.226695 0.160572 0.231486 0.198112 -0.217171 -0.115732 0.219337 -0.224211 -0.073104 -0.065986 -0.265330 0.156963 0.125180 -0.262230 -0.033235 0.265103 -0.114097 0.351987 0.062000 0.518256 0.487175 -0.112358 0.423755 -0.052200 -0.091336 0.559274 -0.480256 0.279385 0.022038 0.199521 -0.160413 0.073071 -0.263349 -0.130245 
meses -0.716887 -0.290821 0.049396 -0.098689 0.409734 -0.106215 0.122404 0.105874 0.034325 0.744640 0.212494 -0.308323 -0.251675 0.205409 0.146668 0.227494 0.116233 0.238102 0.545301 0.260819 -0.167066 0.211367 0.381732 -0.486731 -0.278477 0.031944 -0.880146 -0.037290 0.286694 -0.225439 -0.248696 0.305019 0.266666 0.417276 0.010332 0.882197 0.619522 0.110286 -0.053002 0.044414 0.448450 0.563395 -0.889346 0.169926 -0.020912 0.365422 -0.365711 0.130541 -0.004542 0.257535 
había -0.461706 -0.176637 0.082228 -0.164761 0.420022 0.432143 0.249551 -0.182065 -0.190045 0.276982 0.155915 -0.254939 -0.201501 0.001931 0.260618 0.251336 0.145120 -0.414310 0.305519 0.555469 -0.204333 0.243700 0.202937 -0.254725 0.138663 0.086432 -0.110512 0.284118 -0.140851 -0.135660 0.229234 0.003085 -0.095181 0.431347 0.106896 0.574792 0.411810 -0.003464 0.245067 0.065912 0.166598 0.146602 -0.649747 0.180223 0.239723 0.184323 -0.036453 0.452589 -0.118246 -0.097997 
fueron -0.347125 0.058283 0.131473 0.073180 0.215564 -0.036076 0.197852 0.081400 0.130722 0.328301 0.531141 0.071959 -0.323635 -0.015198 0.118334 -0.044543 0.111778 0.241303 0.288878 0.144834 -0.093379 0.324362 0.331383 -0.225240 0.007409 0.067313 -0.531879 0.310162 0.243741 -0.173456 -0.159107 0.153897 0.265317 0.409470 0.012412 0.466527 0.487300 -0.000511 0.339767 0.108713 0.098140 0.518461 -0.414580 0.189273 0.127462 0.068570 -0.170462 -0.174962 -0.136639 -0.132455 
hacer -0.361661 -0.024905 0.113982 -0.388444 0.306459 0.153312 0.281148 -0.532596 -0.411372 0.109680 -0.047947 -0.074124 -0.481251 -0.430619 -0.315203 0.403615 0.426895 -0.193374 0.379383 0.243837 -0.370554 0.017432 -0.027322 -0.222555 0.119932 -0.141125 0.086418 0.191835 -0.096306 -0.153261 0.150109 -0.006001 -0.271502 0.269333 0.223490 0.580560 0.344846 0.081072 0.381508 -0.171117 -0.403397 -0.011806 -0.698225 0.052372 0.300876 0.419721 -0.165050 0.290526 -0.457552 -0.269529 
Junta 0.393717 -0.622079 0.557484 0.515848 0.302276 -0.280542 0.483157 -0.075980 -0.174928 -0.024778 0.046817 0.161123 0.179732 -0.423125 -0.154598 0.410593 0.356955 -0.413349 0.677882 0.338714 -0.060067 0.425995 0.280180 -0.373832 0.047353 -0.051798 -0.106110 0.103047 0.192321 -0.287496 -0.231745 0.089607 0.008146 0.003006 -0.082763 0.090727 0.365250 0.138536 0.241660 -0.201565 -0.432775 0.411292 -0.057640 0.129767 0.233333 0.077338 -0.080521 -0.084779 0.127336 0.286459 
lugar -0.235055 -0.221165 0.162515 0.083148 0.522141 -0.061680 0.278078 -0.379375 -0.175528 0.288338 0.441900 -0.188867 -0.001073 -0.095881 -0.090744 0.429228 0.254475 -0.196145 0.272283 0.348317 -0.105274 0.236546 0.197769 -0.287037 0.200166 0.205236 -0.301242 0.286454 0.126528 -0.067302 -0.034588 0.101939 0.162362 0.002720 0.344004 0.528256 0.406393 0.182367 0.245140 -0.008971 -0.219051 0.241073 -0.558174 0.169795 0.159283 0.184981 -0.493039 -0.009006 -0.013062 0.197636 
centro -0.103940 -0.306436 0.176349 0.061782 0.521380 -0.213607 0.213516 -0.253365 -0.114083 0.163240 0.276943 0.045869 -0.007758 -0.056598 -0.010641 0.288557 0.291720 -0.318540 0.398728 0.237726 -0.182486 0.252305 0.215438 -0.428961 0.053112 0.177162 -0.358286 0.166741 0.044044 0.065016 -0.085305 0.021712 0.075565 0.015577 0.197268 0.442403 0.320383 -0.003422 0.303097 0.018490 -0.098981 0.241650 -0.236830 0.107684 0.221612 0.237583 -0.150512 0.017040 -0.011143 -0.002564 
tarde -0.367597 -0.267381 0.358853 -0.155719 0.440197 0.048294 0.294970 -0.451874 -0.077940 0.093182 0.553759 -0.024554 -0.168318 0.046905 -0.154436 0.151641 0.351785 0.027751 0.198956 0.321776 -0.167674 0.530499 0.293236 -0.475602 0.241728 0.016724 -0.632714 0.279580 -0.053648 -0.364571 -0.113661 0.312165 0.060351 0.161586 0.260370 0.503318 0.530295 -0.014474 -0.018353 -0.109775 0.104431 0.128681 -0.343835 0.198832 -0.005806 0.076168 -0.159011 -0.235386 -0.041764 0.110474 
París -0.001568 -0.550334 0.558759 0.065034 0.233532 0.115225 0.320492 -0.069484 -0.574546 0.278438 0.696684 -0.398610 -0.067469 0.000247 -0.242385 0.255196 0.525791 0.043943 0.073553 0.366016 -0.077092 0.251597 0.334419 -0.343665 0.157156 0.150503 -0.579409 0.545217 -0.257638 -0.238517 0.319305 0.608878 0.002206 -0.075769 0.312727 0.180212 0.115975 -0.233595 0.408260 -0.282678 0.432846 0.554954 0.096239 0.578439 0.006200 0.179889 -0.125359 0.128787 0.151655 0.197801 
Comisión 0.400582 -0.555515 0.644119 0.455284 0.428009 -0.154515 0.403224 -0.305291 -0.169711 -0.106409 0.011341 0.057903 0.258832 -0.352285 -0.359097 0.124529 0.314439 -0.520868 0.732339 0.492802 -0.141030 0.433472 0.326704 -0.387327 0.260976 -0.145797 -0.068781 0.224662 0.144147 -0.275634 -0.296259 0.149629 0.086991 -0.089826 0.002385 0.097569 0.403147 0.039276 0.101306 -0.150137 -0.601369 0.235022 -0.079536 0.246634 0.411949 -0.004670 -0.014724 -0.108152 0.004745 0.149951 
español -0.087252 -0.184964 0.104246 0.426292 0.500659 -0.151904 0.299884 -0.051489 -0.179950 0.265141 0.144418 -0.082268 -0.140617 -0.274792 0.070823 0.258859 0.471711 -0.368547 0.489020 0.158740 -0.038017 0.239270 0.204130 -0.308327 0.185772 0.128432 -0.059397 0.253976 0.048498 0.041836 0.109578 -0.159664 -0.007328 0.350782 0.053302 -0.007590 0.115062 0.269740 0.647983 0.070834 -0.216874 0.359067 -0.148022 -0.015546 0.304030 0.298733 -0.114851 0.264992 0.076468 -0.142180 
ni -0.300837 0.103555 0.217784 -0.171319 0.399287 0.429769 0.237651 -0.442321 -0.263139 -0.087620 -0.104031 -0.145435 -0.486005 -0.467764 -0.167021 0.367486 0.344840 -0.274266 0.445462 0.375888 -0.261874 -0.015122 0.136162 -0.184618 0.121665 -0.245199 0.261890 0.150803 -0.171825 -0.200564 0.285671 0.043054 -0.387482 0.485647 0.217837 0.550660 0.363621 -0.046595 0.401189 0.013231 -0.345491 0.052884 -0.640846 -0.022802 0.392128 0.314604 -0.190985 0.442890 -0.474011 -0.327071 
Valencia -0.207243 -0.521280 0.408049 0.256610 0.306955 -0.054557 0.373589 -0.045555 -0.647007 0.336156 0.733600 -0.371290 -0.105538 -0.111300 0.049772 0.370941 0.617812 -0.112074 -0.010455 0.203724 0.039513 0.276944 0.178411 -0.405120 0.134363 0.161303 -0.461925 0.543251 -0.309992 -0.074828 0.505393 0.264143 -0.073580 0.167450 0.453764 0.115707 0.046117 -0.254267 0.832244 -0.405214 0.339213 0.377602 0.229722 0.472601 0.066893 0.525720 -0.337953 0.122143 0.241686 0.198682 
indicó 0.051051 -0.253647 0.217694 0.335791 0.370412 0.071666 0.298752 -0.176255 -0.369488 0.201152 -0.005252 -0.205763 -0.141471 -0.197287 -0.096519 0.074381 0.472237 -0.402080 0.494702 0.310888 -0.017268 0.315630 0.231407 -0.244620 0.217623 -0.074381 -0.070536 0.311379 -0.148747 -0.216030 0.214913 0.008795 -0.142589 0.286787 0.037096 0.178152 0.147067 0.223755 0.510874 -0.195286 -0.203764 0.199747 -0.178212 0.206200 0.437232 0.172636 -0.066670 0.271134 0.015986 -0.053293 
Europa -0.133140 -0.384725 0.418249 0.201875 0.376899 -0.256016 0.167513 -0.172863 -0.541993 0.366102 0.437427 -0.281830 -0.136479 -0.246705 -0.036629 0.263523 0.485480 -0.079436 0.182755 0.190294 -0.040172 0.284463 0.328440 -0.334229 0.100685 -0.134080 -0.458231 0.226463 -0.057181 -0.069850 0.145257 0.416042 0.077051 -0.143461 0.124806 0.126597 0.223727 0.049621 0.431348 -0.293488 -0.301551 0.232001 -0.117908 0.500902 0.190450 0.233080 -0.097375 -0.147410 -0.053086 0.178395 
ese -0.412679 -0.136374 0.037667 0.075909 0.282146 -0.063197 0.164203 -0.328340 -0.322093 0.347097 0.062955 -0.204209 -0.164173 -0.127901 -0.414776 0.298223 0.493363 0.084362 0.211128 0.517912 -0.118368 0.136532 0.105428 -0.285312 0.232035 0.077487 -0.195953 0.217724 0.061400 0.088228 0.281382 0.104398 -0.019428 0.215642 0.139340 0.313328 0.454074 0.417763 0.293010 -0.149838 -0.346208 0.133161 -0.672592 0.211490 0.392856 0.187933 -0.032042 0.187976 -0.311772 0.106460 
tienen -0.326859 0.226328 0.210064 -0.248152 0.192656 0.000336 0.173735 -0.100694 -0.337581 0.271634 0.032566 -0.070839 -0.680516 -0.276485 -0.082513 0.048657 0.230928 0.125329 0.199450 -0.016481 -0.141561 0.098187 0.170853 -0.314510 -0.319922 -0.309400 -0.097582 0.246963 -0.009886 -0.234031 -0.140415 0.229265 -0.154228 0.340976 -0.052034 0.781514 0.376296 -0.127681 0.445192 -0.235675 -0.210663 0.309753 -0.577190 0.307837 0.268940 0.187274 -0.227625 -0.054922 -0.567958 -0.409452 
otro -0.451743 -0.105992 0.094863 -0.278058 0.181072 0.061376 0.407681 -0.313393 -0.480051 0.263685 0.258316 -0.042725 -0.307843 -0.186343 -0.037131 0.211567 0.444738 0.032744 0.359743 0.227628 -0.070439 0.088902 0.084775 -0.221065 0.141304 -0.015772 -0.146838 0.244282 -0.096763 0.112257 0.276744 -0.106449 -0.189894 0.391251 0.087228 0.178811 0.266364 0.113969 0.568885 -0.013654 -0.057611 0.245067 -0.386727 -0.073361 0.289802 0.460689 0.091151 0.492111 -0.089870 -0.021212 
Estado 0.062593 -0.293527 0.318420 0.415060 0.466859 -0.240611 0.373406 -0.081410 -0.135577 0.316856 0.054521 0.217584 -0.014822 -0.382743 0.046327 0.290563 0.296292 -0.310903 0.576506 0.290300 -0.043769 0.298163 0.196405 -0.356224 0.138949 0.182806 -0.204116 0.071590 0.151865 0.073329 -0.082384 -0.285934 0.176700 0.151196 -0.034569 -0.003038 0.328460 0.119139 0.446976 0.078809 -0.352987 0.303086 -0.168335 0.028240 0.312945 0.234310 0.063808 -0.005961 0.180257 -0.096768 
afirmó 0.103815 -0.342640 0.445225 0.188785 0.375088 0.011742 0.395271 -0.291939 -0.359477 0.030523 0.070441 -0.222799 -0.129684 -0.282199 -0.031301 -0.003994 0.402886 -0.459921 0.638512 0.313850 0.079684 0.303051 0.272863 -0.219926 0.193772 -0.120091 0.059258 0.272695 -0.214657 -0.153541 0.245364 -0.067644 -0.264954 0.269190 0.074077 0.172530 0.083249 0.016501 0.493844 -0.187128 -0.374464 0.174347 -0.240550 0.068666 0.455135 0.298290 -0.031187 0.416498 -0.048735 -0.033986 
número -0.338788 -0.047440 -0.039944 -0.103568 0.354519 -0.062565 0.073360 -0.168996 -0.189147 0.282662 0.106518 0.036077 -0.309353 -0.060244 0.094237 0.273498 0.403860 0.037052 0.227409 0.137391 -0.140486 0.352749 0.217472 -0.371936 -0.055538 0.067861 -0.485546 0.092809 0.062807 -0.001604 0.002076 0.114076 0.054150 0.407450 0.126922 0.588085 0.446770 0.173027 0.345200 -0.170978 0.083779 0.232069 -0.391371 0.112086 0.247745 0.327304 -0.190657 -0.025520 -0.095772 -0.199605 
María 0.605537 -0.611566 0.960531 0.598318 0.311363 -0.206793 0.602985 -0.041704 0.020593 -0.053167 0.408240 0.208752 0.222312 -0.401777 -0.010292 0.417748 0.263508 -0.465814 0.805692 0.317200 -0.096953 0.129200 0.426965 -0.345449 0.134908 0.123053 0.158768 0.169975 0.311010 -0.195250 -0.180617 -0.150089 0.036025 -0.027934 -0.078336 -0.329292 0.197033 -0.114739 0.335400 0.266040 -0.264045 0.777021 -0.070086 -0.128548 0.241969 0.164649 0.174150 0.378575 0.053643 0.107899 
gran -0.257315 -0.127166 0.111526 -0.332441 0.404409 0.066311 0.243298 -0.461154 -0.440272 0.042178 0.196154 -0.002315 -0.241904 -0.177464 -0.174553 0.360526 0.503892 -0.233345 0.181746 0.188120 -0.191752 0.305233 0.136869 -0.459090 0.157764 0.022023 -0.293825 0.180539 -0.141864 -0.117567 0.098519 0.100294 -0.064669 0.203154 0.202834 0.592766 0.296448 0.120608 0.354488 -0.162756 -0.095763 -0.013415 -0.286137 0.121221 0.265798 0.307610 -0.076299 0.113938 -0.075430 -0.000476 
hecho -0.317007 -0.186166 0.292847 -0.010628 0.364174 0.274396 0.332167 -0.417652 -0.302621 0.185711 -0.138017 -0.132566 -0.173743 -0.211927 -0.024936 0.232304 0.446241 -0.258521 0.439208 0.363440 -0.157968 0.084176 0.009922 -0.209190 0.086997 -0.200305 -0.013454 0.242915 -0.221502 -0.120539 0.277275 0.098579 -0.207268 0.536743 0.451677 0.463675 0.319781 -0.154215 0.507469 -0.133051 0.035175 0.271252 -0.213858 -0.081709 0.278256 0.461303 -0.262794 0.463995 -0.170497 -0.061232 
secretario 0.482671 -0.571468 0.343544 0.800596 0.429119 -0.336401 0.509137 -0.073983 -0.320373 0.206236 0.197966 0.226249 0.181860 -0.385554 0.145931 0.471272 0.200962 -0.389800 0.694028 0.361914 -0.027938 0.371857 0.065889 -0.364294 0.126856 0.239123 -0.165531 0.287785 0.178370 0.022556 -0.048676 -0.320175 -0.080004 0.219429 0.019919 -0.342468 0.363026 0.137098 0.659218 -0.070244 -0.349536 0.497431 0.033602 0.055766 0.416943 0.208072 0.147707 0.165438 0.423322 0.088313 
tiempo -0.570152 -0.076535 -0.027024 -0.262669 0.445365 0.098234 0.164032 -0.253506 -0.145008 0.250448 0.284366 -0.128858 -0.377663 -0.097657 -0.037414 0.355930 0.349241 -0.089838 0.311408 0.278356 -0.162110 0.155797 0.033017 -0.378054 -0.014466 0.057165 -0.124586 0.204968 -0.017654 0.010372 0.144138 0.032477 -0.132470 0.361152 0.153089 0.685490 0.362860 0.120841 0.420227 -0.122197 -0.029708 0.047248 -0.646663 -0.003023 0.206975 0.473507 -0.371852 0.228131 -0.169162 -0.218929 
varios -0.375920 -0.107856 0.332755 -0.154398 0.250163 -0.134255 0.258145 0.032692 0.106938 0.341893 0.292866 -0.076620 -0.065092 -0.026865 0.149989 0.235589 0.180833 0.178988 0.441786 0.273488 -0.084054 0.023286 0.459082 -0.215201 -0.205482 0.048715 -0.323205 -0.010465 0.381580 -0.080735 -0.274770 0.225081 0.064203 0.214127 -0.045457 0.524929 0.469658 0.080075 0.093924 0.167630 0.028869 0.601196 -0.626814 0.075864 0.113833 0.240838 -0.236936 0.042693 -0.244087 0.005449 
ahora -0.457556 0.061321 0.178867 0.040039 0.338458 0.286139 0.387934 -0.287782 -0.258738 0.347824 -0.029536 -0.144881 -0.228714 -0.190463 0.065537 0.453081 0.412150 -0.063378 0.196163 0.511995 -0.144228 0.191572 0.141976 -0.174272 0.102175 0.116198 -0.163853 0.263569 -0.108207 -0.146615 0.101380 0.060414 -0.106897 0.430614 0.310896 0.476715 0.559536 0.195863 0.293009 0.040177 -0.010907 0.144658 -0.502594 0.174966 0.162376 0.389101 -0.303933 0.198031 -0.072314 -0.080727 
algunos -0.465134 0.058802 0.364869 -0.196302 0.241971 0.053457 0.197165 -0.089759 -0.214072 0.329419 0.116590 -0.074101 -0.354654 -0.137554 -0.128634 0.062517 0.328870 0.359837 0.345198 0.111594 -0.120569 -0.000730 0.349586 -0.203870 -0.247206 -0.181445 -0.256653 0.134860 0.077463 -0.125884 -0.059997 0.367784 -0.210173 0.280166 0.061061 0.453654 0.458445 0.003527 0.386223 0.055656 -0.091522 0.499177 -0.437113 0.085393 0.061289 0.233768 -0.054843 -0.027014 -0.335898 -0.114795 
cuenta -0.189763 -0.083088 0.119375 -0.049487 0.374471 -0.108013 0.239951 -0.330807 -0.274516 0.183880 -0.033805 -0.115238 -0.435387 -0.149683 -0.179796 0.265021 0.332098 -0.049179 0.210795 0.057472 -0.184083 0.352015 0.120934 -0.582118 -0.066342 -0.037268 -0.342360 0.365830 -0.065124 -0.271214 -0.180861 0.094079 -0.230386 0.218024 0.104291 0.423299 0.486402 0.212861 0.206684 -0.222057 -0.086931 0.134587 -0.461579 0.100812 0.065550 0.200853 -0.097183 -0.124131 -0.129152 -0.130469 
acciones -0.170358 -0.027392 -0.081149 0.029008 0.157843 -0.279890 0.036381 0.035883 -0.033883 0.271016 -0.228719 0.266652 -0.525385 -0.132913 -0.317173 0.332140 0.349299 0.184387 0.211600 0.110391 -0.485915 0.576355 -0.084753 -0.740306 -0.068039 0.028272 -0.767633 0.295242 0.162971 -0.154105 -0.489934 0.304764 0.356980 0.286507 0.081252 0.914952 0.912959 0.231369 0.094668 -0.279547 0.048419 0.171371 -0.562639 0.418735 0.105313 0.092166 -0.245359 -0.693174 -0.249259 -0.317474 
PSOE 0.240180 -0.366499 0.578975 0.573254 0.596063 -0.071672 0.458521 -0.275734 -0.281896 0.112779 0.184673 0.057499 0.044687 -0.378935 0.031789 0.233120 0.409515 -0.453490 0.634358 0.310419 0.063878 0.055796 0.219047 -0.287247 0.185770 0.035912 0.034146 0.153687 0.009862 -0.039085 0.151937 -0.275464 -0.174291 0.180592 0.158602 -0.103599 0.106074 -0.187947 0.713401 0.071970 -0.493072 0.350928 0.092372 -0.004505 0.356058 0.328066 0.035016 0.304327 0.032648 -0.040468 
sur -0.513485 -0.290760 0.535285 -0.163770 0.850327 -0.183066 0.377302 -0.467428 0.275663 0.213188 0.996385 0.306273 -0.055699 -0.159313 0.421655 0.117761 0.163439 0.049293 0.577226 0.413059 -0.186973 0.206833 0.433784 -0.299672 0.231865 0.053264 -0.463385 -0.003661 0.293675 0.120907 -0.165682 -0.153529 0.301991 -0.038781 0.257016 0.402810 0.396297 0.015462 0.079943 0.348208 -0.288257 0.049573 -0.556260 -0.136849 0.290633 0.271064 -0.147606 -0.328051 0.004179 -0.025766 
proceso 0.060914 -0.283099 0.256601 0.183059 0.470314 -0.188428 0.233539 -0.413259 -0.227510 0.096068 0.064888 0.101252 0.103080 -0.150428 -0.180484 0.314038 0.270127 -0.361524 0.331357 0.349042 -0.133453 0.156289 0.217354 -0.297461 -0.034843 0.070676 -0.198020 0.015859 0.064507 -0.001962 -0.033790 -0.030741 -0.017758 -0.014830 0.253051 0.522041 0.355254 -0.023790 0.371807 -0.041204 -0.327964 0.317976 -0.403592 0.140460 0.284861 0.205164 -0.242414 -0.004811 -0.117018 -0.043361 
últimos -0.902300 -0.087482 0.207369 -0.027588 0.456098 0.034466 0.201581 0.028405 0.081675 0.741417 0.279896 -0.359233 -0.284961 0.049232 0.317842 0.129528 0.126398 0.273892 0.781659 0.082465 -0.144855 0.045265 0.347153 -0.254109 -0.114337 -0.124185 -0.627308 0.147579 0.215495 -0.245579 -0.192979 0.492940 0.126974 0.380767 0.165503 0.896650 0.482385 0.070098 0.132539 0.145776 0.448136 0.564933 -0.754391 0.036223 0.104728 0.405643 -0.479855 0.154701 -0.120196 0.272572 
